<?xml version="1.0"?>
<opencv_storage>
<stage9>
  <maxWeakCount>13</maxWeakCount>
  <stageThreshold>-1.2681211233139038e+00</stageThreshold>
  <weakClassifiers>
    <_>
      <internalNodes>
        0 -1 179389 6.4244354143738747e-04</internalNodes>
      <leafValues>
        -5.6956523656845093e-01 5.0776255130767822e-01</leafValues></_>
    <_>
      <internalNodes>
        0 -1 218258 4.9342839047312737e-03</internalNodes>
      <leafValues>
        -5.5513203144073486e-01 3.4503844380378723e-01</leafValues></_>
    <_>
      <internalNodes>
        0 -1 128635 3.9704251103103161e-03</internalNodes>
      <leafValues>
        -3.8643997907638550e-01 5.4850912094116211e-01</leafValues></_>
    <_>
      <internalNodes>
        0 -1 280856 4.5356713235378265e-03</internalNodes>
      <leafValues>
        -3.4874939918518066e-01 5.2800673246383667e-01</leafValues></_>
    <_>
      <internalNodes>
        0 -1 292268 -1.2519563548266888e-02</internalNodes>
      <leafValues>
        5.0035381317138672e-01 -3.7434121966362000e-01</leafValues></_>
    <_>
      <internalNodes>
        0 -1 163365 8.9681558310985565e-03</internalNodes>
      <leafValues>
        -3.3596411347389221e-01 4.5544955134391785e-01</leafValues></_>
    <_>
      <internalNodes>
        0 -1 178514 4.0067069232463837e-02</internalNodes>
      <leafValues>
        -2.4265101552009583e-01 5.6615990400314331e-01</leafValues></_>
    <_>
      <internalNodes>
        0 -1 179615 -1.6767815686762333e-03</internalNodes>
      <leafValues>
        3.0082935094833374e-01 -5.1338279247283936e-01</leafValues></_>
    <_>
      <internalNodes>
        0 -1 236035 1.4066341100260615e-04</internalNodes>
      <leafValues>
        -5.8082550764083862e-01 2.0349973440170288e-01</leafValues></_>
    <_>
      <internalNodes>
        0 -1 57040 2.2351633757352829e-02</internalNodes>
      <leafValues>
        -2.5765338540077209e-01 4.6522817015647888e-01</leafValues></_>
    <_>
      <internalNodes>
        0 -1 235349 2.0406165276654065e-04</internalNodes>
      <leafValues>
        -4.7745397686958313e-01 2.8306180238723755e-01</leafValues></_>
    <_>
      <internalNodes>
        0 -1 106517 -2.1658507175743580e-03</internalNodes>
      <leafValues>
        3.6980473995208740e-01 -3.3032020926475525e-01</leafValues></_>
    <_>
      <internalNodes>
        0 -1 151182 -1.0691580828279257e-03</internalNodes>
      <leafValues>
        -7.9791653156280518e-01 1.5753272175788879e-01</leafValues></_></weakClassifiers></stage9>
</opencv_storage>
