<?xml version="1.0"?>
<opencv_storage>
<stage6>
  <maxWeakCount>10</maxWeakCount>
  <stageThreshold>-1.0316674709320068e+00</stageThreshold>
  <weakClassifiers>
    <_>
      <internalNodes>
        0 -1 202082 2.7212813496589661e-02</internalNodes>
      <leafValues>
        -3.1573605537414551e-01 6.9729727506637573e-01</leafValues></_>
    <_>
      <internalNodes>
        0 -1 233133 -1.4166157925501466e-03</internalNodes>
      <leafValues>
        4.9706253409385681e-01 -5.9033536911010742e-01</leafValues></_>
    <_>
      <internalNodes>
        0 -1 279477 5.4175020195543766e-03</internalNodes>
      <leafValues>
        -4.0320557355880737e-01 5.0865018367767334e-01</leafValues></_>
    <_>
      <internalNodes>
        0 -1 128632 6.8247457966208458e-03</internalNodes>
      <leafValues>
        -3.7308922410011292e-01 5.0649964809417725e-01</leafValues></_>
    <_>
      <internalNodes>
        0 -1 112705 3.6570712924003601e-02</internalNodes>
      <leafValues>
        -5.9936881065368652e-01 3.1789997220039368e-01</leafValues></_>
    <_>
      <internalNodes>
        0 -1 29699 8.5625182837247849e-03</internalNodes>
      <leafValues>
        -4.3551591038703918e-01 4.3671888113021851e-01</leafValues></_>
    <_>
      <internalNodes>
        0 -1 260987 1.0420484468340874e-02</internalNodes>
      <leafValues>
        -3.3999595046043396e-01 5.7786315679550171e-01</leafValues></_>
    <_>
      <internalNodes>
        0 -1 252798 2.4402506649494171e-02</internalNodes>
      <leafValues>
        -2.3091894388198853e-01 6.6657054424285889e-01</leafValues></_>
    <_>
      <internalNodes>
        0 -1 219747 8.3413237007334828e-05</internalNodes>
      <leafValues>
        -6.6649037599563599e-01 2.3190735280513763e-01</leafValues></_>
    <_>
      <internalNodes>
        0 -1 248163 2.3930122551973909e-04</internalNodes>
      <leafValues>
        -5.5644321441650391e-01 2.5389629602432251e-01</leafValues></_></weakClassifiers></stage6>
</opencv_storage>
