<?xml version="1.0"?>
<opencv_storage>
<stage3>
  <maxWeakCount>5</maxWeakCount>
  <stageThreshold>-8.8992863893508911e-01</stageThreshold>
  <weakClassifiers>
    <_>
      <internalNodes>
        0 -1 181115 1.7704011872410774e-02</internalNodes>
      <leafValues>
        -6.6579633951187134e-01 7.2186833620071411e-01</leafValues></_>
    <_>
      <internalNodes>
        0 -1 179118 1.0842781513929367e-02</internalNodes>
      <leafValues>
        -6.0554832220077515e-01 6.1562508344650269e-01</leafValues></_>
    <_>
      <internalNodes>
        0 -1 129914 3.4011192619800568e-03</internalNodes>
      <leafValues>
        -4.9579882621765137e-01 6.2853133678436279e-01</leafValues></_>
    <_>
      <internalNodes>
        0 -1 86425 1.2836066074669361e-02</internalNodes>
      <leafValues>
        -5.6934571266174316e-01 4.7785460948944092e-01</leafValues></_>
    <_>
      <internalNodes>
        0 -1 219009 5.9462059289216995e-04</internalNodes>
      <leafValues>
        -6.6402024030685425e-01 3.9936023950576782e-01</leafValues></_></weakClassifiers></stage3>
</opencv_storage>
