<?xml version="1.0"?>
<opencv_storage>
<cascade>
  <stageType>BOOST</stageType>
  <featureType>HAAR</featureType>
  <height>50</height>
  <width>50</width>
  <stageParams>
    <boostType>GAB</boostType>
    <minHitRate>9.9500000476837158e-01</minHitRate>
    <maxFalseAlarm>5.0000000000000000e-01</maxFalseAlarm>
    <weightTrimRate>9.4999999999999996e-01</weightTrimRate>
    <maxDepth>1</maxDepth>
    <maxWeakCount>100</maxWeakCount></stageParams>
  <featureParams>
    <maxCatCount>0</maxCatCount>
    <featSize>1</featSize>
    <mode>BASIC</mode></featureParams>
  <stageNum>16</stageNum>
  <stages>
    <!-- stage 0 -->
    <_>
      <maxWeakCount>6</maxWeakCount>
      <stageThreshold>-9.6275371313095093e-01</stageThreshold>
      <weakClassifiers>
        <_>
          <internalNodes>
            0 -1 197 -5.2117435261607170e-03</internalNodes>
          <leafValues>
            6.6272532939910889e-01 -7.3475801944732666e-01</leafValues></_>
        <_>
          <internalNodes>
            0 -1 295 -1.4516372233629227e-02</internalNodes>
          <leafValues>
            6.2627875804901123e-01 -3.6939105391502380e-01</leafValues></_>
        <_>
          <internalNodes>
            0 -1 84 1.0749356588348746e-03</internalNodes>
          <leafValues>
            -5.1535284519195557e-01 4.0962913632392883e-01</leafValues></_>
        <_>
          <internalNodes>
            0 -1 117 2.0982541143894196e-02</internalNodes>
          <leafValues>
            1.9334186613559723e-01 -8.1488692760467529e-01</leafValues></_>
        <_>
          <internalNodes>
            0 -1 138 1.2191240675747395e-03</internalNodes>
          <leafValues>
            -5.3961938619613647e-01 3.0572599172592163e-01</leafValues></_>
        <_>
          <internalNodes>
            0 -1 108 1.9297715276479721e-02</internalNodes>
          <leafValues>
            1.5768030285835266e-01 -8.2837349176406860e-01</leafValues></_></weakClassifiers></_>
    <!-- stage 1 -->
    <_>
      <maxWeakCount>11</maxWeakCount>
      <stageThreshold>-1.0099587440490723e+00</stageThreshold>
      <weakClassifiers>
        <_>
          <internalNodes>
            0 -1 44 -2.1564483642578125e-02</internalNodes>
          <leafValues>
            6.5112262964248657e-01 -3.6166194081306458e-01</leafValues></_>
        <_>
          <internalNodes>
            0 -1 272 -1.6308564692735672e-02</internalNodes>
          <leafValues>
            4.6487385034561157e-01 -3.9283248782157898e-01</leafValues></_>
        <_>
          <internalNodes>
            0 -1 128 -1.9923069048672915e-03</internalNodes>
          <leafValues>
            2.2198362648487091e-01 -7.0532834529876709e-01</leafValues></_>
        <_>
          <internalNodes>
            0 -1 42 -4.3987408280372620e-02</internalNodes>
          <leafValues>
            -7.7504378557205200e-01 1.6514137387275696e-01</leafValues></_>
        <_>
          <internalNodes>
            0 -1 227 2.4489838629961014e-02</internalNodes>
          <leafValues>
            -2.6667699217796326e-01 5.6616377830505371e-01</leafValues></_>
        <_>
          <internalNodes>
            0 -1 141 -1.9495241343975067e-02</internalNodes>
          <leafValues>
            7.0106196403503418e-01 -2.4465374648571014e-01</leafValues></_>
        <_>
          <internalNodes>
            0 -1 194 -1.0782171040773392e-02</internalNodes>
          <leafValues>
            5.5906569957733154e-01 -2.1089607477188110e-01</leafValues></_>
        <_>
          <internalNodes>
            0 -1 143 4.0059290826320648e-02</internalNodes>
          <leafValues>
            2.1164587140083313e-01 -7.9942297935485840e-01</leafValues></_>
        <_>
          <internalNodes>
            0 -1 156 -2.8633089736104012e-02</internalNodes>
          <leafValues>
            -8.3209085464477539e-01 8.2987867295742035e-02</leafValues></_>
        <_>
          <internalNodes>
            0 -1 101 1.8396157771348953e-02</internalNodes>
          <leafValues>
            1.6032016277313232e-01 -7.6206946372985840e-01</leafValues></_>
        <_>
          <internalNodes>
            0 -1 23 1.0953468736261129e-03</internalNodes>
          <leafValues>
            -2.9548791050910950e-01 3.7434315681457520e-01</leafValues></_></weakClassifiers></_>
    <!-- stage 2 -->
    <_>
      <maxWeakCount>12</maxWeakCount>
      <stageThreshold>-1.1082843542098999e+00</stageThreshold>
      <weakClassifiers>
        <_>
          <internalNodes>
            0 -1 187 -1.2295543216168880e-02</internalNodes>
          <leafValues>
            5.9226304292678833e-01 -5.1392406225204468e-01</leafValues></_>
        <_>
          <internalNodes>
            0 -1 273 -9.1603007167577744e-03</internalNodes>
          <leafValues>
            3.7310808897018433e-01 -4.9802744388580322e-01</leafValues></_>
        <_>
          <internalNodes>
            0 -1 21 1.8708059797063470e-03</internalNodes>
          <leafValues>
            -2.7091306447982788e-01 4.5969948172569275e-01</leafValues></_>
        <_>
          <internalNodes>
            0 -1 95 -1.2875132262706757e-02</internalNodes>
          <leafValues>
            3.7787407636642456e-01 -2.9454296827316284e-01</leafValues></_>
        <_>
          <internalNodes>
            0 -1 163 1.1246966896578670e-03</internalNodes>
          <leafValues>
            -4.6418467164039612e-01 2.2585095465183258e-01</leafValues></_>
        <_>
          <internalNodes>
            0 -1 8 1.9808836281299591e-02</internalNodes>
          <leafValues>
            -1.5104505419731140e-01 7.0689517259597778e-01</leafValues></_>
        <_>
          <internalNodes>
            0 -1 12 -1.6152350232005119e-02</internalNodes>
          <leafValues>
            7.0654332637786865e-01 -1.6014049947261810e-01</leafValues></_>
        <_>
          <internalNodes>
            0 -1 87 -2.9571436345577240e-02</internalNodes>
          <leafValues>
            -8.3986854553222656e-01 1.5088899433612823e-01</leafValues></_>
        <_>
          <internalNodes>
            0 -1 289 -7.0161913754418492e-04</internalNodes>
          <leafValues>
            3.0856290459632874e-01 -3.3396577835083008e-01</leafValues></_>
        <_>
          <internalNodes>
            0 -1 36 -2.8119400143623352e-02</internalNodes>
          <leafValues>
            -7.4267494678497314e-01 1.4122503995895386e-01</leafValues></_>
        <_>
          <internalNodes>
            0 -1 206 -1.7185279284603894e-04</internalNodes>
          <leafValues>
            2.0634311437606812e-01 -4.3314516544342041e-01</leafValues></_>
        <_>
          <internalNodes>
            0 -1 155 2.9376713559031487e-02</internalNodes>
          <leafValues>
            1.1774223297834396e-01 -8.7677675485610962e-01</leafValues></_></weakClassifiers></_>
    <!-- stage 3 -->
    <_>
      <maxWeakCount>14</maxWeakCount>
      <stageThreshold>-1.2187052965164185e+00</stageThreshold>
      <weakClassifiers>
        <_>
          <internalNodes>
            0 -1 274 1.1857909150421619e-02</internalNodes>
          <leafValues>
            -1.3199724256992340e-01 6.8257260322570801e-01</leafValues></_>
        <_>
          <internalNodes>
            0 -1 14 1.8691638484597206e-02</internalNodes>
          <leafValues>
            -1.9731493294239044e-01 6.2229299545288086e-01</leafValues></_>
        <_>
          <internalNodes>
            0 -1 266 -2.3474892601370811e-02</internalNodes>
          <leafValues>
            4.0541547536849976e-01 -2.9636663198471069e-01</leafValues></_>
        <_>
          <internalNodes>
            0 -1 148 -1.4199480414390564e-02</internalNodes>
          <leafValues>
            5.3628545999526978e-01 -2.4323114752769470e-01</leafValues></_>
        <_>
          <internalNodes>
            0 -1 116 4.4707423076033592e-03</internalNodes>
          <leafValues>
            -2.1175986528396606e-01 4.9285364151000977e-01</leafValues></_>
        <_>
          <internalNodes>
            0 -1 198 2.9365912079811096e-02</internalNodes>
          <leafValues>
            -3.0196163058280945e-01 3.2476618885993958e-01</leafValues></_>
        <_>
          <internalNodes>
            0 -1 292 5.3585278801620007e-03</internalNodes>
          <leafValues>
            -1.9978071749210358e-01 4.9731403589248657e-01</leafValues></_>
        <_>
          <internalNodes>
            0 -1 226 2.9141426086425781e-02</internalNodes>
          <leafValues>
            -8.1464089453220367e-02 6.7325514554977417e-01</leafValues></_>
        <_>
          <internalNodes>
            0 -1 38 1.1171363294124603e-02</internalNodes>
          <leafValues>
            -1.9856426119804382e-01 5.7331931591033936e-01</leafValues></_>
        <_>
          <internalNodes>
            0 -1 160 -1.9072134047746658e-02</internalNodes>
          <leafValues>
            5.5900841951370239e-01 -1.6484136879444122e-01</leafValues></_>
        <_>
          <internalNodes>
            0 -1 320 7.1368040516972542e-03</internalNodes>
          <leafValues>
            -1.6350188851356506e-01 4.7247320413589478e-01</leafValues></_>
        <_>
          <internalNodes>
            0 -1 301 -1.3221794739365578e-02</internalNodes>
          <leafValues>
            4.8360738158226013e-01 -2.2781559824943542e-01</leafValues></_>
        <_>
          <internalNodes>
            0 -1 212 4.8460732214152813e-03</internalNodes>
          <leafValues>
            -1.9709697365760803e-01 4.4640666246414185e-01</leafValues></_>
        <_>
          <internalNodes>
            0 -1 346 1.3652963563799858e-02</internalNodes>
          <leafValues>
            -1.1936097592115402e-01 6.6339683532714844e-01</leafValues></_></weakClassifiers></_>
    <!-- stage 4 -->
    <_>
      <maxWeakCount>16</maxWeakCount>
      <stageThreshold>-9.6870565414428711e-01</stageThreshold>
      <weakClassifiers>
        <_>
          <internalNodes>
            0 -1 260 -1.1862433748319745e-03</internalNodes>
          <leafValues>
            4.7248640656471252e-01 -6.1716938018798828e-01</leafValues></_>
        <_>
          <internalNodes>
            0 -1 67 4.9190148711204529e-03</internalNodes>
          <leafValues>
            -4.2717376351356506e-01 2.9204472899436951e-01</leafValues></_>
        <_>
          <internalNodes>
            0 -1 268 -6.3981371931731701e-03</internalNodes>
          <leafValues>
            4.6041682362556458e-01 -2.8086695075035095e-01</leafValues></_>
        <_>
          <internalNodes>
            0 -1 93 -1.9634455442428589e-02</internalNodes>
          <leafValues>
            5.2952373027801514e-01 -2.3460143804550171e-01</leafValues></_>
        <_>
          <internalNodes>
            0 -1 319 -1.3094652444124222e-02</internalNodes>
          <leafValues>
            4.5392006635665894e-01 -2.6942414045333862e-01</leafValues></_>
        <_>
          <internalNodes>
            0 -1 77 1.5562728513032198e-03</internalNodes>
          <leafValues>
            -1.9587711989879608e-01 5.0724488496780396e-01</leafValues></_>
        <_>
          <internalNodes>
            0 -1 355 -2.6306719519197941e-03</internalNodes>
          <leafValues>
            4.6418562531471252e-01 -1.9310110807418823e-01</leafValues></_>
        <_>
          <internalNodes>
            0 -1 30 -1.7927899956703186e-02</internalNodes>
          <leafValues>
            6.4056897163391113e-01 -1.6272808611392975e-01</leafValues></_>
        <_>
          <internalNodes>
            0 -1 37 9.6761193126440048e-03</internalNodes>
          <leafValues>
            -1.5765333175659180e-01 5.2731990814208984e-01</leafValues></_>
        <_>
          <internalNodes>
            0 -1 35 1.8248492851853371e-03</internalNodes>
          <leafValues>
            -1.5185202658176422e-01 6.1142694950103760e-01</leafValues></_>
        <_>
          <internalNodes>
            0 -1 318 -3.6012330092489719e-03</internalNodes>
          <leafValues>
            3.5348218679428101e-01 -2.7860701084136963e-01</leafValues></_>
        <_>
          <internalNodes>
            0 -1 132 -3.0308330431580544e-02</internalNodes>
          <leafValues>
            -7.8507483005523682e-01 1.2446384876966476e-01</leafValues></_>
        <_>
          <internalNodes>
            0 -1 104 9.7019858658313751e-03</internalNodes>
          <leafValues>
            1.1378055810928345e-01 -6.5690743923187256e-01</leafValues></_>
        <_>
          <internalNodes>
            0 -1 232 -2.2324488963931799e-04</internalNodes>
          <leafValues>
            1.8004405498504639e-01 -4.2593556642532349e-01</leafValues></_>
        <_>
          <internalNodes>
            0 -1 331 3.1137533951550722e-03</internalNodes>
          <leafValues>
            -2.0571443438529968e-01 4.1440558433532715e-01</leafValues></_>
        <_>
          <internalNodes>
            0 -1 139 -1.5071323141455650e-02</internalNodes>
          <leafValues>
            -7.0000725984573364e-01 1.3400995731353760e-01</leafValues></_></weakClassifiers></_>
    <!-- stage 5 -->
    <_>
      <maxWeakCount>17</maxWeakCount>
      <stageThreshold>-8.2912832498550415e-01</stageThreshold>
      <weakClassifiers>
        <_>
          <internalNodes>
            0 -1 303 4.9529275856912136e-03</internalNodes>
          <leafValues>
            -1.2353706173598766e-02 6.2275451421737671e-01</leafValues></_>
        <_>
          <internalNodes>
            0 -1 9 1.9171986728906631e-02</internalNodes>
          <leafValues>
            -1.6564644873142242e-01 5.5457669496536255e-01</leafValues></_>
        <_>
          <internalNodes>
            0 -1 191 2.9702479951083660e-03</internalNodes>
          <leafValues>
            -1.6205750405788422e-01 5.8462476730346680e-01</leafValues></_>
        <_>
          <internalNodes>
            0 -1 96 3.1083594076335430e-03</internalNodes>
          <leafValues>
            -2.2173041105270386e-01 4.4940564036369324e-01</leafValues></_>
        <_>
          <internalNodes>
            0 -1 51 3.5386122763156891e-03</internalNodes>
          <leafValues>
            1.4776052534580231e-01 -6.4777523279190063e-01</leafValues></_>
        <_>
          <internalNodes>
            0 -1 15 -1.8470055656507611e-03</internalNodes>
          <leafValues>
            2.9246464371681213e-01 -3.1698355078697205e-01</leafValues></_>
        <_>
          <internalNodes>
            0 -1 282 -5.0423480570316315e-04</internalNodes>
          <leafValues>
            3.0155006051063538e-01 -3.1432929635047913e-01</leafValues></_>
        <_>
          <internalNodes>
            0 -1 258 2.2666357457637787e-02</internalNodes>
          <leafValues>
            1.0396468639373779e-01 -8.5049712657928467e-01</leafValues></_>
        <_>
          <internalNodes>
            0 -1 220 -1.6846204176545143e-02</internalNodes>
          <leafValues>
            -8.2162082195281982e-01 8.9398130774497986e-02</leafValues></_>
        <_>
          <internalNodes>
            0 -1 43 -2.3234490305185318e-02</internalNodes>
          <leafValues>
            -7.4893289804458618e-01 1.0875235497951508e-01</leafValues></_>
        <_>
          <internalNodes>
            0 -1 245 3.4562245011329651e-02</internalNodes>
          <leafValues>
            -2.0175710320472717e-01 5.1162588596343994e-01</leafValues></_>
        <_>
          <internalNodes>
            0 -1 225 -1.3179130852222443e-02</internalNodes>
          <leafValues>
            6.1423850059509277e-01 -1.3055256009101868e-01</leafValues></_>
        <_>
          <internalNodes>
            0 -1 11 -1.6453407704830170e-02</internalNodes>
          <leafValues>
            6.9889324903488159e-01 -1.2586586177349091e-01</leafValues></_>
        <_>
          <internalNodes>
            0 -1 230 4.8484988510608673e-03</internalNodes>
          <leafValues>
            -2.0263913273811340e-01 3.6340451240539551e-01</leafValues></_>
        <_>
          <internalNodes>
            0 -1 115 -5.6443014182150364e-03</internalNodes>
          <leafValues>
            4.8759669065475464e-01 -1.7588242888450623e-01</leafValues></_>
        <_>
          <internalNodes>
            0 -1 134 -8.3228070288896561e-03</internalNodes>
          <leafValues>
            6.0419642925262451e-01 -1.3581809401512146e-01</leafValues></_>
        <_>
          <internalNodes>
            0 -1 171 3.0779913067817688e-03</internalNodes>
          <leafValues>
            -1.6325435042381287e-01 4.9861252307891846e-01</leafValues></_></weakClassifiers></_>
    <!-- stage 6 -->
    <_>
      <maxWeakCount>21</maxWeakCount>
      <stageThreshold>-9.7447943687438965e-01</stageThreshold>
      <weakClassifiers>
        <_>
          <internalNodes>
            0 -1 277 -3.9237782359123230e-02</internalNodes>
          <leafValues>
            6.1580383777618408e-01 -3.2467532437294722e-03</leafValues></_>
        <_>
          <internalNodes>
            0 -1 184 1.1748800054192543e-02</internalNodes>
          <leafValues>
            -2.1636387705802917e-01 3.9334473013877869e-01</leafValues></_>
        <_>
          <internalNodes>
            0 -1 145 -5.6237434037029743e-03</internalNodes>
          <leafValues>
            4.0470194816589355e-01 -2.1766246855258942e-01</leafValues></_>
        <_>
          <internalNodes>
            0 -1 83 -1.5844190493226051e-02</internalNodes>
          <leafValues>
            4.7590428590774536e-01 -2.3838312923908234e-01</leafValues></_>
        <_>
          <internalNodes>
            0 -1 131 2.8628956526517868e-02</internalNodes>
          <leafValues>
            1.2187208980321884e-01 -8.7909513711929321e-01</leafValues></_>
        <_>
          <internalNodes>
            0 -1 18 1.0033521801233292e-02</internalNodes>
          <leafValues>
            -1.4022001624107361e-01 5.9437865018844604e-01</leafValues></_>
        <_>
          <internalNodes>
            0 -1 59 -2.0974446088075638e-02</internalNodes>
          <leafValues>
            -7.4429541826248169e-01 7.7270343899726868e-02</leafValues></_>
        <_>
          <internalNodes>
            0 -1 215 -8.0891922116279602e-03</internalNodes>
          <leafValues>
            1.0967458784580231e-01 -6.3709717988967896e-01</leafValues></_>
        <_>
          <internalNodes>
            0 -1 328 6.1195328831672668e-02</internalNodes>
          <leafValues>
            -1.2738455832004547e-01 6.2959724664688110e-01</leafValues></_>
        <_>
          <internalNodes>
            0 -1 81 -4.1233792901039124e-02</internalNodes>
          <leafValues>
            4.4044101238250732e-01 -1.6572174429893494e-01</leafValues></_>
        <_>
          <internalNodes>
            0 -1 241 1.8048821017146111e-02</internalNodes>
          <leafValues>
            8.6625605821609497e-02 -7.2805732488632202e-01</leafValues></_>
        <_>
          <internalNodes>
            0 -1 267 -7.0510422810912132e-03</internalNodes>
          <leafValues>
            4.0775024890899658e-01 -1.9508995115756989e-01</leafValues></_>
        <_>
          <internalNodes>
            0 -1 306 -2.2040526382625103e-03</internalNodes>
          <leafValues>
            3.7893876433372498e-01 -1.8773257732391357e-01</leafValues></_>
        <_>
          <internalNodes>
            0 -1 283 6.1167441308498383e-03</internalNodes>
          <leafValues>
            -2.2485505044460297e-01 3.1051257252693176e-01</leafValues></_>
        <_>
          <internalNodes>
            0 -1 352 -1.2712695170193911e-03</internalNodes>
          <leafValues>
            3.6331769824028015e-01 -1.8367081880569458e-01</leafValues></_>
        <_>
          <internalNodes>
            0 -1 300 1.1479743756353855e-02</internalNodes>
          <leafValues>
            -1.6987109184265137e-01 3.8975644111633301e-01</leafValues></_>
        <_>
          <internalNodes>
            0 -1 204 3.0655045062303543e-02</internalNodes>
          <leafValues>
            -1.8758988380432129e-01 4.1531798243522644e-01</leafValues></_>
        <_>
          <internalNodes>
            0 -1 126 4.0114022791385651e-02</internalNodes>
          <leafValues>
            -1.2313891947269440e-01 6.7527437210083008e-01</leafValues></_>
        <_>
          <internalNodes>
            0 -1 193 -1.6708284616470337e-02</internalNodes>
          <leafValues>
            5.1024401187896729e-01 -1.3628610968589783e-01</leafValues></_>
        <_>
          <internalNodes>
            0 -1 2 7.5263768434524536e-02</internalNodes>
          <leafValues>
            -1.4332953095436096e-01 5.7279855012893677e-01</leafValues></_>
        <_>
          <internalNodes>
            0 -1 252 2.4730077711865306e-04</internalNodes>
          <leafValues>
            9.7105726599693298e-02 -7.8002482652664185e-01</leafValues></_></weakClassifiers></_>
    <!-- stage 7 -->
    <_>
      <maxWeakCount>21</maxWeakCount>
      <stageThreshold>-9.2900770902633667e-01</stageThreshold>
      <weakClassifiers>
        <_>
          <internalNodes>
            0 -1 56 3.7846975028514862e-03</internalNodes>
          <leafValues>
            -1.3320274651050568e-01 5.3568392992019653e-01</leafValues></_>
        <_>
          <internalNodes>
            0 -1 309 -3.8359355181455612e-02</internalNodes>
          <leafValues>
            5.3371864557266235e-01 -1.3965025544166565e-01</leafValues></_>
        <_>
          <internalNodes>
            0 -1 281 1.1930628679692745e-02</internalNodes>
          <leafValues>
            -2.3844116926193237e-01 3.2409945130348206e-01</leafValues></_>
        <_>
          <internalNodes>
            0 -1 133 -9.6300002187490463e-03</internalNodes>
          <leafValues>
            3.3466526865959167e-01 -2.5457412004470825e-01</leafValues></_>
        <_>
          <internalNodes>
            0 -1 136 -3.0596624128520489e-03</internalNodes>
          <leafValues>
            4.4830340147018433e-01 -2.0273055136203766e-01</leafValues></_>
        <_>
          <internalNodes>
            0 -1 338 1.2704159598797560e-03</internalNodes>
          <leafValues>
            -2.2588936984539032e-01 3.2672265172004700e-01</leafValues></_>
        <_>
          <internalNodes>
            0 -1 238 4.1254021925851703e-04</internalNodes>
          <leafValues>
            7.9627059400081635e-02 -7.9000157117843628e-01</leafValues></_>
        <_>
          <internalNodes>
            0 -1 140 -1.1259498074650764e-02</internalNodes>
          <leafValues>
            -6.0521757602691650e-01 9.5061235129833221e-02</leafValues></_>
        <_>
          <internalNodes>
            0 -1 286 -2.9411641880869865e-03</internalNodes>
          <leafValues>
            2.4007329344749451e-01 -2.8428393602371216e-01</leafValues></_>
        <_>
          <internalNodes>
            0 -1 181 -3.2779604225652292e-05</internalNodes>
          <leafValues>
            1.4339306950569153e-01 -4.6144571900367737e-01</leafValues></_>
        <_>
          <internalNodes>
            0 -1 210 8.1589666660875082e-04</internalNodes>
          <leafValues>
            8.9670695364475250e-02 -8.3408945798873901e-01</leafValues></_>
        <_>
          <internalNodes>
            0 -1 354 9.7342405933886766e-04</internalNodes>
          <leafValues>
            -2.4652795493602753e-01 2.6372084021568298e-01</leafValues></_>
        <_>
          <internalNodes>
            0 -1 22 -2.6680976152420044e-03</internalNodes>
          <leafValues>
            4.0918514132499695e-01 -1.5129055082798004e-01</leafValues></_>
        <_>
          <internalNodes>
            0 -1 62 -4.6320229768753052e-02</internalNodes>
          <leafValues>
            -8.2328927516937256e-01 8.6841031908988953e-02</leafValues></_>
        <_>
          <internalNodes>
            0 -1 203 1.1687373742461205e-02</internalNodes>
          <leafValues>
            5.0731472671031952e-02 -9.0608078241348267e-01</leafValues></_>
        <_>
          <internalNodes>
            0 -1 162 1.4526336453855038e-03</internalNodes>
          <leafValues>
            7.4180081486701965e-02 -7.1060371398925781e-01</leafValues></_>
        <_>
          <internalNodes>
            0 -1 97 5.4965596646070480e-03</internalNodes>
          <leafValues>
            -1.3263605535030365e-01 5.0914335250854492e-01</leafValues></_>
        <_>
          <internalNodes>
            0 -1 120 -5.5379774421453476e-03</internalNodes>
          <leafValues>
            3.7237882614135742e-01 -1.7531038820743561e-01</leafValues></_>
        <_>
          <internalNodes>
            0 -1 135 1.2757783755660057e-02</internalNodes>
          <leafValues>
            1.1400259286165237e-01 -6.1536461114883423e-01</leafValues></_>
        <_>
          <internalNodes>
            0 -1 239 3.3705192618072033e-04</internalNodes>
          <leafValues>
            7.3633864521980286e-02 -7.6754450798034668e-01</leafValues></_>
        <_>
          <internalNodes>
            0 -1 1 -8.7893016636371613e-02</internalNodes>
          <leafValues>
            7.0961421728134155e-01 -9.9300943315029144e-02</leafValues></_></weakClassifiers></_>
    <!-- stage 8 -->
    <_>
      <maxWeakCount>27</maxWeakCount>
      <stageThreshold>-1.0335541963577271e+00</stageThreshold>
      <weakClassifiers>
        <_>
          <internalNodes>
            0 -1 100 -8.4207020699977875e-03</internalNodes>
          <leafValues>
            4.5171448588371277e-01 -3.2108315825462341e-01</leafValues></_>
        <_>
          <internalNodes>
            0 -1 343 1.5947001520544291e-03</internalNodes>
          <leafValues>
            -2.5808936357498169e-01 3.1065884232521057e-01</leafValues></_>
        <_>
          <internalNodes>
            0 -1 20 6.1151031404733658e-03</internalNodes>
          <leafValues>
            -1.7703087627887726e-01 4.3908703327178955e-01</leafValues></_>
        <_>
          <internalNodes>
            0 -1 313 7.3236175812780857e-03</internalNodes>
          <leafValues>
            -1.6123996675014496e-01 4.1110843420028687e-01</leafValues></_>
        <_>
          <internalNodes>
            0 -1 357 -4.2766677215695381e-03</internalNodes>
          <leafValues>
            5.4185843467712402e-01 -1.5966643393039703e-01</leafValues></_>
        <_>
          <internalNodes>
            0 -1 4 -4.6711824834346771e-03</internalNodes>
          <leafValues>
            4.4065189361572266e-01 -1.3660730421543121e-01</leafValues></_>
        <_>
          <internalNodes>
            0 -1 40 1.0848350077867508e-01</internalNodes>
          <leafValues>
            -1.4576876163482666e-01 3.8456496596336365e-01</leafValues></_>
        <_>
          <internalNodes>
            0 -1 180 -1.7716730944812298e-03</internalNodes>
          <leafValues>
            2.5448459386825562e-01 -2.6931998133659363e-01</leafValues></_>
        <_>
          <internalNodes>
            0 -1 332 -1.9757959307753481e-05</internalNodes>
          <leafValues>
            1.7686846852302551e-01 -3.9345023036003113e-01</leafValues></_>
        <_>
          <internalNodes>
            0 -1 196 1.5910166548565030e-03</internalNodes>
          <leafValues>
            -2.8766751289367676e-01 2.2188416123390198e-01</leafValues></_>
        <_>
          <internalNodes>
            0 -1 152 -7.3140725493431091e-02</internalNodes>
          <leafValues>
            4.7104132175445557e-01 -1.2693549692630768e-01</leafValues></_>
        <_>
          <internalNodes>
            0 -1 270 -2.3411896545439959e-03</internalNodes>
          <leafValues>
            2.7512720227241516e-01 -2.4076212942600250e-01</leafValues></_>
        <_>
          <internalNodes>
            0 -1 293 2.2650361061096191e-03</internalNodes>
          <leafValues>
            -1.5585371851921082e-01 4.0593653917312622e-01</leafValues></_>
        <_>
          <internalNodes>
            0 -1 276 1.0966521222144365e-03</internalNodes>
          <leafValues>
            -1.5374007821083069e-01 4.1254469752311707e-01</leafValues></_>
        <_>
          <internalNodes>
            0 -1 69 -7.7886069193482399e-03</internalNodes>
          <leafValues>
            -3.8369053602218628e-01 1.5532456338405609e-01</leafValues></_>
        <_>
          <internalNodes>
            0 -1 224 2.4740821681916714e-03</internalNodes>
          <leafValues>
            -2.4367508292198181e-01 2.6359558105468750e-01</leafValues></_>
        <_>
          <internalNodes>
            0 -1 153 3.8295660167932510e-02</internalNodes>
          <leafValues>
            9.0564809739589691e-02 -7.5313866138458252e-01</leafValues></_>
        <_>
          <internalNodes>
            0 -1 256 -1.9213028252124786e-02</internalNodes>
          <leafValues>
            -6.6169548034667969e-01 6.4065814018249512e-02</leafValues></_>
        <_>
          <internalNodes>
            0 -1 205 -5.3944913670420647e-03</internalNodes>
          <leafValues>
            1.3932582736015320e-01 -3.9024674892425537e-01</leafValues></_>
        <_>
          <internalNodes>
            0 -1 27 2.0749601535499096e-03</internalNodes>
          <leafValues>
            -1.6477504372596741e-01 3.4174716472625732e-01</leafValues></_>
        <_>
          <internalNodes>
            0 -1 311 9.5676463097333908e-03</internalNodes>
          <leafValues>
            -1.3555799424648285e-01 4.3317928910255432e-01</leafValues></_>
        <_>
          <internalNodes>
            0 -1 207 1.1098373215645552e-03</internalNodes>
          <leafValues>
            7.6755009591579437e-02 -7.8813254833221436e-01</leafValues></_>
        <_>
          <internalNodes>
            0 -1 279 -7.6349114533513784e-04</internalNodes>
          <leafValues>
            1.0603883862495422e-01 -5.0375664234161377e-01</leafValues></_>
        <_>
          <internalNodes>
            0 -1 340 -7.3111191391944885e-02</internalNodes>
          <leafValues>
            5.3656923770904541e-01 -1.1955914646387100e-01</leafValues></_>
        <_>
          <internalNodes>
            0 -1 106 -1.0237503796815872e-02</internalNodes>
          <leafValues>
            4.7613704204559326e-01 -1.1710791289806366e-01</leafValues></_>
        <_>
          <internalNodes>
            0 -1 99 4.8670265823602676e-03</internalNodes>
          <leafValues>
            -1.6694656014442444e-01 3.8465502858161926e-01</leafValues></_>
        <_>
          <internalNodes>
            0 -1 79 -4.8292046412825584e-03</internalNodes>
          <leafValues>
            4.6668878197669983e-01 -1.2671880424022675e-01</leafValues></_></weakClassifiers></_>
    <!-- stage 9 -->
    <_>
      <maxWeakCount>26</maxWeakCount>
      <stageThreshold>-8.3678501844406128e-01</stageThreshold>
      <weakClassifiers>
        <_>
          <internalNodes>
            0 -1 144 -3.7196636199951172e-02</internalNodes>
          <leafValues>
            -6.8345326185226440e-01 4.0028423070907593e-01</leafValues></_>
        <_>
          <internalNodes>
            0 -1 195 6.9993147626519203e-03</internalNodes>
          <leafValues>
            -2.2980636358261108e-01 3.5108983516693115e-01</leafValues></_>
        <_>
          <internalNodes>
            0 -1 142 4.1130684316158295e-02</internalNodes>
          <leafValues>
            -1.8149855732917786e-01 4.8666962981224060e-01</leafValues></_>
        <_>
          <internalNodes>
            0 -1 109 -2.0963873714208603e-02</internalNodes>
          <leafValues>
            3.8904014229774475e-01 -2.0793238282203674e-01</leafValues></_>
        <_>
          <internalNodes>
            0 -1 314 2.0068180747330189e-03</internalNodes>
          <leafValues>
            -2.2374723851680756e-01 3.6598947644233704e-01</leafValues></_>
        <_>
          <internalNodes>
            0 -1 161 -5.2196187898516655e-03</internalNodes>
          <leafValues>
            2.7712309360504150e-01 -2.8177183866500854e-01</leafValues></_>
        <_>
          <internalNodes>
            0 -1 168 2.8007827699184418e-02</internalNodes>
          <leafValues>
            1.4083456993103027e-01 -5.6369370222091675e-01</leafValues></_>
        <_>
          <internalNodes>
            0 -1 122 -6.4052417874336243e-03</internalNodes>
          <leafValues>
            4.1636303067207336e-01 -1.5819853544235229e-01</leafValues></_>
        <_>
          <internalNodes>
            0 -1 89 -8.9843347668647766e-03</internalNodes>
          <leafValues>
            3.9033472537994385e-01 -1.9312690198421478e-01</leafValues></_>
        <_>
          <internalNodes>
            0 -1 349 9.5480848103761673e-03</internalNodes>
          <leafValues>
            -1.0270939767360687e-01 5.2900320291519165e-01</leafValues></_>
        <_>
          <internalNodes>
            0 -1 344 -6.5812910906970501e-04</internalNodes>
          <leafValues>
            -6.2471407651901245e-01 1.2608948349952698e-01</leafValues></_>
        <_>
          <internalNodes>
            0 -1 217 6.5048504620790482e-04</internalNodes>
          <leafValues>
            4.4537607580423355e-02 -7.4947130680084229e-01</leafValues></_>
        <_>
          <internalNodes>
            0 -1 17 6.3237547874450684e-03</internalNodes>
          <leafValues>
            -1.8015369772911072e-01 3.0626374483108521e-01</leafValues></_>
        <_>
          <internalNodes>
            0 -1 350 -6.8227676674723625e-03</internalNodes>
          <leafValues>
            5.2538168430328369e-01 -1.0947111994028091e-01</leafValues></_>
        <_>
          <internalNodes>
            0 -1 175 -2.4654011940583587e-04</internalNodes>
          <leafValues>
            2.8721818327903748e-01 -1.9293816387653351e-01</leafValues></_>
        <_>
          <internalNodes>
            0 -1 333 -3.6887865280732512e-04</internalNodes>
          <leafValues>
            2.5445485115051270e-01 -2.0842026174068451e-01</leafValues></_>
        <_>
          <internalNodes>
            0 -1 66 1.9084010273218155e-02</internalNodes>
          <leafValues>
            6.9112792611122131e-02 -7.5816458463668823e-01</leafValues></_>
        <_>
          <internalNodes>
            0 -1 47 1.6627563163638115e-03</internalNodes>
          <leafValues>
            6.3545793294906616e-02 -6.5365546941757202e-01</leafValues></_>
        <_>
          <internalNodes>
            0 -1 297 4.1715642437338829e-03</internalNodes>
          <leafValues>
            -1.2274658679962158e-01 4.5693543553352356e-01</leafValues></_>
        <_>
          <internalNodes>
            0 -1 244 4.7310926020145416e-03</internalNodes>
          <leafValues>
            -1.0346600413322449e-01 4.8694130778312683e-01</leafValues></_>
        <_>
          <internalNodes>
            0 -1 335 2.1617738530039787e-03</internalNodes>
          <leafValues>
            -2.3638895153999329e-01 2.4538284540176392e-01</leafValues></_>
        <_>
          <internalNodes>
            0 -1 216 -1.0447712615132332e-02</internalNodes>
          <leafValues>
            1.3795457780361176e-01 -4.2351841926574707e-01</leafValues></_>
        <_>
          <internalNodes>
            0 -1 146 2.1105907857418060e-02</internalNodes>
          <leafValues>
            7.0590414106845856e-02 -7.2569483518600464e-01</leafValues></_>
        <_>
          <internalNodes>
            0 -1 323 1.5696108341217041e-02</internalNodes>
          <leafValues>
            5.5145196616649628e-02 -8.0086100101470947e-01</leafValues></_>
        <_>
          <internalNodes>
            0 -1 33 -4.8696994781494141e-03</internalNodes>
          <leafValues>
            5.6413680315017700e-01 -1.0479827970266342e-01</leafValues></_>
        <_>
          <internalNodes>
            0 -1 112 -1.4405300840735435e-02</internalNodes>
          <leafValues>
            4.1999328136444092e-01 -1.2561364471912384e-01</leafValues></_></weakClassifiers></_>
    <!-- stage 10 -->
    <_>
      <maxWeakCount>27</maxWeakCount>
      <stageThreshold>-8.5181874036788940e-01</stageThreshold>
      <weakClassifiers>
        <_>
          <internalNodes>
            0 -1 90 -6.2691112980246544e-03</internalNodes>
          <leafValues>
            -5.5510205030441284e-01 4.0287539362907410e-01</leafValues></_>
        <_>
          <internalNodes>
            0 -1 5 2.2264627739787102e-02</internalNodes>
          <leafValues>
            -1.1703018099069595e-01 4.9764916300773621e-01</leafValues></_>
        <_>
          <internalNodes>
            0 -1 325 -6.2660202383995056e-03</internalNodes>
          <leafValues>
            4.3578097224235535e-01 -1.8573397397994995e-01</leafValues></_>
        <_>
          <internalNodes>
            0 -1 179 3.5250622779130936e-02</internalNodes>
          <leafValues>
            -2.1448476612567902e-01 2.7970415353775024e-01</leafValues></_>
        <_>
          <internalNodes>
            0 -1 16 -8.4488047286868095e-04</internalNodes>
          <leafValues>
            1.9008584320545197e-01 -3.0054756999015808e-01</leafValues></_>
        <_>
          <internalNodes>
            0 -1 264 -8.3995203021913767e-04</internalNodes>
          <leafValues>
            2.9698064923286438e-01 -1.9229705631732941e-01</leafValues></_>
        <_>
          <internalNodes>
            0 -1 247 -1.1000184342265129e-02</internalNodes>
          <leafValues>
            3.5245910286903381e-01 -1.8397442996501923e-01</leafValues></_>
        <_>
          <internalNodes>
            0 -1 228 3.8634017109870911e-02</internalNodes>
          <leafValues>
            -1.6348333656787872e-01 4.3455848097801208e-01</leafValues></_>
        <_>
          <internalNodes>
            0 -1 229 4.4939979910850525e-02</internalNodes>
          <leafValues>
            -1.5072230994701385e-01 4.7331878542900085e-01</leafValues></_>
        <_>
          <internalNodes>
            0 -1 329 6.9976374506950378e-02</internalNodes>
          <leafValues>
            -9.1773182153701782e-02 6.0783499479293823e-01</leafValues></_>
        <_>
          <internalNodes>
            0 -1 254 1.5636213123798370e-02</internalNodes>
          <leafValues>
            9.3710154294967651e-02 -7.1250790357589722e-01</leafValues></_>
        <_>
          <internalNodes>
            0 -1 234 -4.9803515139501542e-05</internalNodes>
          <leafValues>
            1.3049113750457764e-01 -4.3372830748558044e-01</leafValues></_>
        <_>
          <internalNodes>
            0 -1 111 -6.1576822772622108e-03</internalNodes>
          <leafValues>
            4.9608081579208374e-01 -1.2838372588157654e-01</leafValues></_>
        <_>
          <internalNodes>
            0 -1 41 -4.0547225624322891e-02</internalNodes>
          <leafValues>
            -7.7209711074829102e-01 7.7835097908973694e-02</leafValues></_>
        <_>
          <internalNodes>
            0 -1 53 6.7717790603637695e-02</internalNodes>
          <leafValues>
            -1.0057903081178665e-01 6.0202997922897339e-01</leafValues></_>
        <_>
          <internalNodes>
            0 -1 107 -1.6342045273631811e-03</internalNodes>
          <leafValues>
            1.2120740860700607e-01 -4.7171863913536072e-01</leafValues></_>
        <_>
          <internalNodes>
            0 -1 70 -1.0218756273388863e-02</internalNodes>
          <leafValues>
            5.6045061349868774e-01 -9.9555067718029022e-02</leafValues></_>
        <_>
          <internalNodes>
            0 -1 147 1.0283041745424271e-02</internalNodes>
          <leafValues>
            1.0816811770200729e-01 -5.2132511138916016e-01</leafValues></_>
        <_>
          <internalNodes>
            0 -1 237 -1.4352003112435341e-02</internalNodes>
          <leafValues>
            -6.1427175998687744e-01 8.6612567305564880e-02</leafValues></_>
        <_>
          <internalNodes>
            0 -1 94 -9.9894674494862556e-03</internalNodes>
          <leafValues>
            2.8543829917907715e-01 -1.7898227274417877e-01</leafValues></_>
        <_>
          <internalNodes>
            0 -1 342 -2.7209194377064705e-04</internalNodes>
          <leafValues>
            -7.1790611743927002e-01 8.0822288990020752e-02</leafValues></_>
        <_>
          <internalNodes>
            0 -1 316 -2.6623558369465172e-04</internalNodes>
          <leafValues>
            2.7031695842742920e-01 -1.8855451047420502e-01</leafValues></_>
        <_>
          <internalNodes>
            0 -1 299 1.1343877762556076e-02</internalNodes>
          <leafValues>
            -1.4843745529651642e-01 3.7921515107154846e-01</leafValues></_>
        <_>
          <internalNodes>
            0 -1 61 -1.9392655231058598e-03</internalNodes>
          <leafValues>
            -8.3923262357711792e-01 6.5152011811733246e-02</leafValues></_>
        <_>
          <internalNodes>
            0 -1 130 -9.6962079405784607e-03</internalNodes>
          <leafValues>
            2.4890415370464325e-01 -2.0250017940998077e-01</leafValues></_>
        <_>
          <internalNodes>
            0 -1 75 1.6314490931108594e-03</internalNodes>
          <leafValues>
            -1.7857222259044647e-01 3.4478363394737244e-01</leafValues></_>
        <_>
          <internalNodes>
            0 -1 166 -4.2462521232664585e-03</internalNodes>
          <leafValues>
            4.6304172277450562e-01 -1.0465722531080246e-01</leafValues></_></weakClassifiers></_>
    <!-- stage 11 -->
    <_>
      <maxWeakCount>31</maxWeakCount>
      <stageThreshold>-8.9477449655532837e-01</stageThreshold>
      <weakClassifiers>
        <_>
          <internalNodes>
            0 -1 259 -2.6380331255495548e-03</internalNodes>
          <leafValues>
            4.1368508338928223e-01 -3.7810218334197998e-01</leafValues></_>
        <_>
          <internalNodes>
            0 -1 137 1.0131611488759518e-02</internalNodes>
          <leafValues>
            -1.6797180473804474e-01 3.3294084668159485e-01</leafValues></_>
        <_>
          <internalNodes>
            0 -1 68 4.0421937592327595e-04</internalNodes>
          <leafValues>
            -4.1768243908882141e-01 1.4065788686275482e-01</leafValues></_>
        <_>
          <internalNodes>
            0 -1 49 -9.4034671783447266e-02</internalNodes>
          <leafValues>
            -8.6868995428085327e-01 6.2764354050159454e-02</leafValues></_>
        <_>
          <internalNodes>
            0 -1 164 5.5300861597061157e-02</internalNodes>
          <leafValues>
            -1.6692566871643066e-01 4.0008664131164551e-01</leafValues></_>
        <_>
          <internalNodes>
            0 -1 188 1.2069062329828739e-02</internalNodes>
          <leafValues>
            -2.2281864285469055e-01 3.1133249402046204e-01</leafValues></_>
        <_>
          <internalNodes>
            0 -1 219 1.5106989303603768e-04</internalNodes>
          <leafValues>
            -2.8991454839706421e-01 1.7737546563148499e-01</leafValues></_>
        <_>
          <internalNodes>
            0 -1 269 2.4658590555191040e-03</internalNodes>
          <leafValues>
            2.9217389225959778e-01 -2.1613332629203796e-01</leafValues></_>
        <_>
          <internalNodes>
            0 -1 249 4.1163549758493900e-04</internalNodes>
          <leafValues>
            -1.7822292447090149e-01 3.4294450283050537e-01</leafValues></_>
        <_>
          <internalNodes>
            0 -1 347 -7.9642818309366703e-04</internalNodes>
          <leafValues>
            -6.8509620428085327e-01 7.1238189935684204e-02</leafValues></_>
        <_>
          <internalNodes>
            0 -1 255 1.4235491398721933e-03</internalNodes>
          <leafValues>
            -1.4862239360809326e-01 3.9581581950187683e-01</leafValues></_>
        <_>
          <internalNodes>
            0 -1 200 4.7512475401163101e-02</internalNodes>
          <leafValues>
            -7.4423007667064667e-02 6.0127985477447510e-01</leafValues></_>
        <_>
          <internalNodes>
            0 -1 339 5.6584144476801157e-04</internalNodes>
          <leafValues>
            -1.8819898366928101e-01 2.7947297692298889e-01</leafValues></_>
        <_>
          <internalNodes>
            0 -1 211 1.7991458298638463e-03</internalNodes>
          <leafValues>
            -1.2608881294727325e-01 3.7839502096176147e-01</leafValues></_>
        <_>
          <internalNodes>
            0 -1 172 7.7613489702343941e-03</internalNodes>
          <leafValues>
            -1.1121073365211487e-01 4.3782389163970947e-01</leafValues></_>
        <_>
          <internalNodes>
            0 -1 6 -2.2576611489057541e-02</internalNodes>
          <leafValues>
            6.2356960773468018e-01 -7.2766140103340149e-02</leafValues></_>
        <_>
          <internalNodes>
            0 -1 10 3.6577783524990082e-02</internalNodes>
          <leafValues>
            -1.2196651101112366e-01 4.7685417532920837e-01</leafValues></_>
        <_>
          <internalNodes>
            0 -1 265 3.3614829182624817e-02</internalNodes>
          <leafValues>
            -7.4822701513767242e-02 6.4947545528411865e-01</leafValues></_>
        <_>
          <internalNodes>
            0 -1 257 -8.1743933260440826e-03</internalNodes>
          <leafValues>
            1.8090993165969849e-01 -3.2400992512702942e-01</leafValues></_>
        <_>
          <internalNodes>
            0 -1 251 -3.9766535162925720e-02</internalNodes>
          <leafValues>
            -7.3168605566024780e-01 7.7596187591552734e-02</leafValues></_>
        <_>
          <internalNodes>
            0 -1 326 -9.1915589291602373e-04</internalNodes>
          <leafValues>
            2.7133649587631226e-01 -1.8928398191928864e-01</leafValues></_>
        <_>
          <internalNodes>
            0 -1 201 -1.0559009015560150e-01</internalNodes>
          <leafValues>
            7.3308521509170532e-01 -7.4835687875747681e-02</leafValues></_>
        <_>
          <internalNodes>
            0 -1 176 3.6286741495132446e-02</internalNodes>
          <leafValues>
            8.6989931762218475e-02 -7.7911883592605591e-01</leafValues></_>
        <_>
          <internalNodes>
            0 -1 280 -5.3568482398986816e-03</internalNodes>
          <leafValues>
            1.5046058595180511e-01 -3.1244900822639465e-01</leafValues></_>
        <_>
          <internalNodes>
            0 -1 278 -5.6839790195226669e-03</internalNodes>
          <leafValues>
            3.9518642425537109e-01 -1.5516555309295654e-01</leafValues></_>
        <_>
          <internalNodes>
            0 -1 290 1.9291157368570566e-03</internalNodes>
          <leafValues>
            -1.3930240273475647e-01 3.6557394266128540e-01</leafValues></_>
        <_>
          <internalNodes>
            0 -1 341 1.0443592909723520e-03</internalNodes>
          <leafValues>
            7.3445513844490051e-02 -6.9851535558700562e-01</leafValues></_>
        <_>
          <internalNodes>
            0 -1 73 1.0934290476143360e-03</internalNodes>
          <leafValues>
            -1.9459065794944763e-01 2.6982194185256958e-01</leafValues></_>
        <_>
          <internalNodes>
            0 -1 288 1.5433215536177158e-02</internalNodes>
          <leafValues>
            8.0401569604873657e-02 -6.7611515522003174e-01</leafValues></_>
        <_>
          <internalNodes>
            0 -1 248 -1.0383110493421555e-02</internalNodes>
          <leafValues>
            2.7843818068504333e-01 -1.9041930139064789e-01</leafValues></_>
        <_>
          <internalNodes>
            0 -1 213 -1.0504709556698799e-02</internalNodes>
          <leafValues>
            3.8706320524215698e-01 -1.4473746716976166e-01</leafValues></_></weakClassifiers></_>
    <!-- stage 12 -->
    <_>
      <maxWeakCount>30</maxWeakCount>
      <stageThreshold>-7.9758030176162720e-01</stageThreshold>
      <weakClassifiers>
        <_>
          <internalNodes>
            0 -1 253 -4.2723212391138077e-03</internalNodes>
          <leafValues>
            4.8277944326400757e-01 -8.2352943718433380e-02</leafValues></_>
        <_>
          <internalNodes>
            0 -1 31 1.7517574131488800e-02</internalNodes>
          <leafValues>
            -2.4071238934993744e-01 2.5261470675468445e-01</leafValues></_>
        <_>
          <internalNodes>
            0 -1 63 3.9444994181394577e-03</internalNodes>
          <leafValues>
            1.2048527598381042e-01 -5.6127816438674927e-01</leafValues></_>
        <_>
          <internalNodes>
            0 -1 92 3.5590142942965031e-03</internalNodes>
          <leafValues>
            7.5349174439907074e-02 -6.5258997678756714e-01</leafValues></_>
        <_>
          <internalNodes>
            0 -1 88 -2.3714769631624222e-02</internalNodes>
          <leafValues>
            -5.7794892787933350e-01 9.3150801956653595e-02</leafValues></_>
        <_>
          <internalNodes>
            0 -1 121 6.4946291968226433e-03</internalNodes>
          <leafValues>
            -1.1655475199222565e-01 5.2288091182708740e-01</leafValues></_>
        <_>
          <internalNodes>
            0 -1 74 1.0729646310210228e-03</internalNodes>
          <leafValues>
            -2.6856499910354614e-01 1.8600800633430481e-01</leafValues></_>
        <_>
          <internalNodes>
            0 -1 261 4.5674286782741547e-02</internalNodes>
          <leafValues>
            9.2867121100425720e-02 -7.6321792602539062e-01</leafValues></_>
        <_>
          <internalNodes>
            0 -1 275 -3.0935835093259811e-03</internalNodes>
          <leafValues>
            2.3375825583934784e-01 -2.1704721450805664e-01</leafValues></_>
        <_>
          <internalNodes>
            0 -1 327 3.8124978542327881e-02</internalNodes>
          <leafValues>
            -7.2466082870960236e-02 6.8850183486938477e-01</leafValues></_>
        <_>
          <internalNodes>
            0 -1 65 1.5141258481889963e-03</internalNodes>
          <leafValues>
            7.3823355138301849e-02 -6.8022447824478149e-01</leafValues></_>
        <_>
          <internalNodes>
            0 -1 243 1.4330493286252022e-02</internalNodes>
          <leafValues>
            5.3732164204120636e-02 -7.7716046571731567e-01</leafValues></_>
        <_>
          <internalNodes>
            0 -1 173 2.5646281428635120e-03</internalNodes>
          <leafValues>
            -2.1955831348896027e-01 2.1962597966194153e-01</leafValues></_>
        <_>
          <internalNodes>
            0 -1 124 2.5624476373195648e-02</internalNodes>
          <leafValues>
            -1.0325076431035995e-01 5.6052523851394653e-01</leafValues></_>
        <_>
          <internalNodes>
            0 -1 214 -1.4991390705108643e-01</internalNodes>
          <leafValues>
            5.7453644275665283e-01 -7.3749937117099762e-02</leafValues></_>
        <_>
          <internalNodes>
            0 -1 186 1.3776294887065887e-02</internalNodes>
          <leafValues>
            -1.8428148329257965e-01 2.9408112168312073e-01</leafValues></_>
        <_>
          <internalNodes>
            0 -1 85 3.8952320814132690e-02</internalNodes>
          <leafValues>
            8.3955198526382446e-02 -7.2678303718566895e-01</leafValues></_>
        <_>
          <internalNodes>
            0 -1 150 -3.0378284864127636e-03</internalNodes>
          <leafValues>
            3.5396707057952881e-01 -1.4931859076023102e-01</leafValues></_>
        <_>
          <internalNodes>
            0 -1 39 -1.8767198780551553e-03</internalNodes>
          <leafValues>
            -7.2992366552352905e-01 6.6764466464519501e-02</leafValues></_>
        <_>
          <internalNodes>
            0 -1 118 1.2834265362471342e-03</internalNodes>
          <leafValues>
            -1.6343761980533600e-01 2.9005792737007141e-01</leafValues></_>
        <_>
          <internalNodes>
            0 -1 170 4.9713281914591789e-03</internalNodes>
          <leafValues>
            -9.3255750834941864e-02 4.8516634106636047e-01</leafValues></_>
        <_>
          <internalNodes>
            0 -1 199 3.5846889950335026e-03</internalNodes>
          <leafValues>
            -1.1414064466953278e-01 3.7392625212669373e-01</leafValues></_>
        <_>
          <internalNodes>
            0 -1 250 -2.9646805487573147e-03</internalNodes>
          <leafValues>
            1.6803592443466187e-01 -2.9372838139533997e-01</leafValues></_>
        <_>
          <internalNodes>
            0 -1 183 -3.6591675598174334e-04</internalNodes>
          <leafValues>
            -3.1501337885856628e-01 1.5036383271217346e-01</leafValues></_>
        <_>
          <internalNodes>
            0 -1 242 1.5649102628231049e-02</internalNodes>
          <leafValues>
            1.0170888155698776e-01 -5.6262999773025513e-01</leafValues></_>
        <_>
          <internalNodes>
            0 -1 19 4.8003671690821648e-03</internalNodes>
          <leafValues>
            -1.0959979146718979e-01 4.2811071872711182e-01</leafValues></_>
        <_>
          <internalNodes>
            0 -1 125 9.1343326494097710e-04</internalNodes>
          <leafValues>
            -1.3806597888469696e-01 3.6692011356353760e-01</leafValues></_>
        <_>
          <internalNodes>
            0 -1 80 1.1912425048649311e-02</internalNodes>
          <leafValues>
            6.7301444709300995e-02 -7.1572804450988770e-01</leafValues></_>
        <_>
          <internalNodes>
            0 -1 3 -3.6624819040298462e-02</internalNodes>
          <leafValues>
            4.8716565966606140e-01 -1.0141199827194214e-01</leafValues></_>
        <_>
          <internalNodes>
            0 -1 330 9.3580922111868858e-03</internalNodes>
          <leafValues>
            -1.2529768049716949e-01 3.7005469202995300e-01</leafValues></_></weakClassifiers></_>
    <!-- stage 13 -->
    <_>
      <maxWeakCount>31</maxWeakCount>
      <stageThreshold>-7.9399228096008301e-01</stageThreshold>
      <weakClassifiers>
        <_>
          <internalNodes>
            0 -1 174 2.6141732931137085e-02</internalNodes>
          <leafValues>
            7.0707067847251892e-02 5.3968256711959839e-01</leafValues></_>
        <_>
          <internalNodes>
            0 -1 110 -1.4059961773455143e-02</internalNodes>
          <leafValues>
            4.1349595785140991e-01 -1.1527594923973083e-01</leafValues></_>
        <_>
          <internalNodes>
            0 -1 315 3.0525713227689266e-03</internalNodes>
          <leafValues>
            -1.6311848163604736e-01 3.6363089084625244e-01</leafValues></_>
        <_>
          <internalNodes>
            0 -1 305 6.8192002363502979e-03</internalNodes>
          <leafValues>
            -1.3867214322090149e-01 4.8055198788642883e-01</leafValues></_>
        <_>
          <internalNodes>
            0 -1 127 2.1661997307091951e-03</internalNodes>
          <leafValues>
            1.8395990133285522e-01 -2.8827789425849915e-01</leafValues></_>
        <_>
          <internalNodes>
            0 -1 167 2.7168411761522293e-03</internalNodes>
          <leafValues>
            -1.5819351375102997e-01 4.2195680737495422e-01</leafValues></_>
        <_>
          <internalNodes>
            0 -1 71 3.1343749724328518e-03</internalNodes>
          <leafValues>
            1.1985208094120026e-01 -4.6281793713569641e-01</leafValues></_>
        <_>
          <internalNodes>
            0 -1 113 -7.6588705182075500e-02</internalNodes>
          <leafValues>
            -8.4683287143707275e-01 5.3946167230606079e-02</leafValues></_>
        <_>
          <internalNodes>
            0 -1 209 -8.3918834570795298e-04</internalNodes>
          <leafValues>
            -6.9071692228317261e-01 5.7747252285480499e-02</leafValues></_>
        <_>
          <internalNodes>
            0 -1 190 1.3562170788645744e-02</internalNodes>
          <leafValues>
            5.8040034025907516e-02 -7.1470415592193604e-01</leafValues></_>
        <_>
          <internalNodes>
            0 -1 294 2.0615933462977409e-02</internalNodes>
          <leafValues>
            -9.5701642334461212e-02 5.2435123920440674e-01</leafValues></_>
        <_>
          <internalNodes>
            0 -1 291 -1.1243752669543028e-03</internalNodes>
          <leafValues>
            2.7187359333038330e-01 -1.8939910829067230e-01</leafValues></_>
        <_>
          <internalNodes>
            0 -1 321 -4.7454684972763062e-03</internalNodes>
          <leafValues>
            3.6343243718147278e-01 -1.3165549933910370e-01</leafValues></_>
        <_>
          <internalNodes>
            0 -1 202 5.2341662347316742e-02</internalNodes>
          <leafValues>
            -9.1285124421119690e-02 5.2734380960464478e-01</leafValues></_>
        <_>
          <internalNodes>
            0 -1 287 -6.1077298596501350e-03</internalNodes>
          <leafValues>
            2.0839793980121613e-01 -2.6156881451606750e-01</leafValues></_>
        <_>
          <internalNodes>
            0 -1 285 -7.4734683148562908e-03</internalNodes>
          <leafValues>
            -6.5601086616516113e-01 9.2309542000293732e-02</leafValues></_>
        <_>
          <internalNodes>
            0 -1 157 1.3351136585697532e-03</internalNodes>
          <leafValues>
            4.2705990374088287e-02 -7.9389035701751709e-01</leafValues></_>
        <_>
          <internalNodes>
            0 -1 32 -2.8148947749286890e-03</internalNodes>
          <leafValues>
            2.8258466720581055e-01 -1.5263280272483826e-01</leafValues></_>
        <_>
          <internalNodes>
            0 -1 308 6.6577389836311340e-02</internalNodes>
          <leafValues>
            -8.2311935722827911e-02 5.4238122701644897e-01</leafValues></_>
        <_>
          <internalNodes>
            0 -1 50 7.8896339982748032e-03</internalNodes>
          <leafValues>
            -1.0228738933801651e-01 3.8525688648223877e-01</leafValues></_>
        <_>
          <internalNodes>
            0 -1 158 -7.0316735655069351e-03</internalNodes>
          <leafValues>
            4.9844953417778015e-01 -9.8405845463275909e-02</leafValues></_>
        <_>
          <internalNodes>
            0 -1 86 -4.3098353780806065e-03</internalNodes>
          <leafValues>
            3.7626060843467712e-01 -1.5649054944515228e-01</leafValues></_>
        <_>
          <internalNodes>
            0 -1 102 -1.0951378499157727e-04</internalNodes>
          <leafValues>
            -4.2629727721214294e-01 1.2224602699279785e-01</leafValues></_>
        <_>
          <internalNodes>
            0 -1 296 3.9835236966609955e-03</internalNodes>
          <leafValues>
            -1.2058075517416000e-01 4.4124725461006165e-01</leafValues></_>
        <_>
          <internalNodes>
            0 -1 236 7.1762502193450928e-04</internalNodes>
          <leafValues>
            8.0685339868068695e-02 -6.3828611373901367e-01</leafValues></_>
        <_>
          <internalNodes>
            0 -1 26 9.1446831822395325e-02</internalNodes>
          <leafValues>
            -1.1703097075223923e-01 3.7710273265838623e-01</leafValues></_>
        <_>
          <internalNodes>
            0 -1 60 3.1507849693298340e-02</internalNodes>
          <leafValues>
            -2.0094111561775208e-01 2.6325386762619019e-01</leafValues></_>
        <_>
          <internalNodes>
            0 -1 310 -4.6137560158967972e-02</internalNodes>
          <leafValues>
            3.7232178449630737e-01 -1.3757696747779846e-01</leafValues></_>
        <_>
          <internalNodes>
            0 -1 28 -1.2454012781381607e-01</internalNodes>
          <leafValues>
            5.2193260192871094e-01 -8.8114976882934570e-02</leafValues></_>
        <_>
          <internalNodes>
            0 -1 223 1.4650503173470497e-02</internalNodes>
          <leafValues>
            8.1078432500362396e-02 -6.8446379899978638e-01</leafValues></_>
        <_>
          <internalNodes>
            0 -1 263 1.0956502519547939e-03</internalNodes>
          <leafValues>
            -1.9442144036293030e-01 2.3590703308582306e-01</leafValues></_></weakClassifiers></_>
    <!-- stage 14 -->
    <_>
      <maxWeakCount>34</maxWeakCount>
      <stageThreshold>-9.0724557638168335e-01</stageThreshold>
      <weakClassifiers>
        <_>
          <internalNodes>
            0 -1 54 1.0059957276098430e-04</internalNodes>
          <leafValues>
            -2.1398002281785011e-02 4.9386700987815857e-01</leafValues></_>
        <_>
          <internalNodes>
            0 -1 334 3.9911777712404728e-03</internalNodes>
          <leafValues>
            -2.1220698952674866e-01 2.6734799146652222e-01</leafValues></_>
        <_>
          <internalNodes>
            0 -1 218 -1.8158855382353067e-03</internalNodes>
          <leafValues>
            -7.0683968067169189e-01 7.9042278230190277e-02</leafValues></_>
        <_>
          <internalNodes>
            0 -1 208 -8.6750253103673458e-04</internalNodes>
          <leafValues>
            1.3072802126407623e-01 -4.2971196770668030e-01</leafValues></_>
        <_>
          <internalNodes>
            0 -1 304 7.6342402026057243e-03</internalNodes>
          <leafValues>
            -1.5682388842105865e-01 3.1940597295761108e-01</leafValues></_>
        <_>
          <internalNodes>
            0 -1 240 1.7842158558778465e-04</internalNodes>
          <leafValues>
            -2.0849990844726562e-01 2.4597111344337463e-01</leafValues></_>
        <_>
          <internalNodes>
            0 -1 114 5.2926093339920044e-03</internalNodes>
          <leafValues>
            -1.3131082057952881e-01 4.0173110365867615e-01</leafValues></_>
        <_>
          <internalNodes>
            0 -1 302 8.8985823094844818e-04</internalNodes>
          <leafValues>
            -2.7315151691436768e-01 1.8734458088874817e-01</leafValues></_>
        <_>
          <internalNodes>
            0 -1 221 1.2640194967389107e-02</internalNodes>
          <leafValues>
            7.7041126787662506e-02 -6.4998495578765869e-01</leafValues></_>
        <_>
          <internalNodes>
            0 -1 151 9.8548624664545059e-03</internalNodes>
          <leafValues>
            -1.0122948884963989e-01 4.7667655348777771e-01</leafValues></_>
        <_>
          <internalNodes>
            0 -1 46 3.4036226570606232e-03</internalNodes>
          <leafValues>
            1.6033425927162170e-01 -3.6773732304573059e-01</leafValues></_>
        <_>
          <internalNodes>
            0 -1 317 -1.6304147429764271e-03</internalNodes>
          <leafValues>
            2.9212841391563416e-01 -1.9070424139499664e-01</leafValues></_>
        <_>
          <internalNodes>
            0 -1 7 4.1469171643257141e-02</internalNodes>
          <leafValues>
            -1.5671046078205109e-01 3.1421008706092834e-01</leafValues></_>
        <_>
          <internalNodes>
            0 -1 13 -1.0085569694638252e-02</internalNodes>
          <leafValues>
            5.0279831886291504e-01 -1.1059492826461792e-01</leafValues></_>
        <_>
          <internalNodes>
            0 -1 165 -1.2446798791643232e-04</internalNodes>
          <leafValues>
            2.8425148129463196e-01 -1.5285569429397583e-01</leafValues></_>
        <_>
          <internalNodes>
            0 -1 55 1.5009162947535515e-02</internalNodes>
          <leafValues>
            1.1255642771720886e-01 -4.7430756688117981e-01</leafValues></_>
        <_>
          <internalNodes>
            0 -1 356 -6.7933052778244019e-03</internalNodes>
          <leafValues>
            6.1730015277862549e-01 -8.2186631858348846e-02</leafValues></_>
        <_>
          <internalNodes>
            0 -1 353 -1.6341498121619225e-03</internalNodes>
          <leafValues>
            3.2516285777091980e-01 -1.4219611883163452e-01</leafValues></_>
        <_>
          <internalNodes>
            0 -1 324 -3.6834087222814560e-04</internalNodes>
          <leafValues>
            1.8497766554355621e-01 -2.4978233873844147e-01</leafValues></_>
        <_>
          <internalNodes>
            0 -1 284 9.7390526207163930e-05</internalNodes>
          <leafValues>
            1.4148248732089996e-01 -3.1152459979057312e-01</leafValues></_>
        <_>
          <internalNodes>
            0 -1 52 -1.2111526913940907e-02</internalNodes>
          <leafValues>
            6.3610547780990601e-01 -6.7839458584785461e-02</leafValues></_>
        <_>
          <internalNodes>
            0 -1 103 2.1347664296627045e-03</internalNodes>
          <leafValues>
            -1.8517038226127625e-01 2.4613292515277863e-01</leafValues></_>
        <_>
          <internalNodes>
            0 -1 262 2.5439273566007614e-02</internalNodes>
          <leafValues>
            5.2885718643665314e-02 -8.1490051746368408e-01</leafValues></_>
        <_>
          <internalNodes>
            0 -1 57 1.0182136669754982e-02</internalNodes>
          <leafValues>
            4.3974895030260086e-02 -8.0009484291076660e-01</leafValues></_>
        <_>
          <internalNodes>
            0 -1 34 -2.3677174001932144e-02</internalNodes>
          <leafValues>
            -8.4954452514648438e-01 3.6542955785989761e-02</leafValues></_>
        <_>
          <internalNodes>
            0 -1 48 -1.1311540007591248e-01</internalNodes>
          <leafValues>
            -6.1848491430282593e-01 5.2883982658386230e-02</leafValues></_>
        <_>
          <internalNodes>
            0 -1 233 -6.8553322926163673e-03</internalNodes>
          <leafValues>
            4.1084948182106018e-01 -1.1715863645076752e-01</leafValues></_>
        <_>
          <internalNodes>
            0 -1 235 4.3981457129120827e-03</internalNodes>
          <leafValues>
            7.7844455838203430e-02 -6.4420008659362793e-01</leafValues></_>
        <_>
          <internalNodes>
            0 -1 182 2.9194809030741453e-03</internalNodes>
          <leafValues>
            -1.2993642687797546e-01 3.4827110171318054e-01</leafValues></_>
        <_>
          <internalNodes>
            0 -1 231 5.0258724950253963e-03</internalNodes>
          <leafValues>
            8.1052787601947784e-02 -5.9026908874511719e-01</leafValues></_>
        <_>
          <internalNodes>
            0 -1 123 -1.2558086309581995e-03</internalNodes>
          <leafValues>
            3.0589467287063599e-01 -1.4811711013317108e-01</leafValues></_>
        <_>
          <internalNodes>
            0 -1 64 8.1823987420648336e-04</internalNodes>
          <leafValues>
            -1.6891597211360931e-01 2.7393531799316406e-01</leafValues></_>
        <_>
          <internalNodes>
            0 -1 25 -1.2661106302402914e-04</internalNodes>
          <leafValues>
            -3.3339524269104004e-01 1.2686261534690857e-01</leafValues></_>
        <_>
          <internalNodes>
            0 -1 25 1.1540589912328869e-04</internalNodes>
          <leafValues>
            1.3532923161983490e-01 -3.5471966862678528e-01</leafValues></_></weakClassifiers></_>
    <!-- stage 15 -->
    <_>
      <maxWeakCount>36</maxWeakCount>
      <stageThreshold>-8.7476807832717896e-01</stageThreshold>
      <weakClassifiers>
        <_>
          <internalNodes>
            0 -1 189 -2.3581916466355324e-02</internalNodes>
          <leafValues>
            5.1136624813079834e-01 9.6033401787281036e-03</leafValues></_>
        <_>
          <internalNodes>
            0 -1 185 2.9740543104708195e-03</internalNodes>
          <leafValues>
            -1.2821640074253082e-01 3.5563349723815918e-01</leafValues></_>
        <_>
          <internalNodes>
            0 -1 246 1.2474212795495987e-02</internalNodes>
          <leafValues>
            -1.0870658606290817e-01 4.4990903139114380e-01</leafValues></_>
        <_>
          <internalNodes>
            0 -1 82 -2.8167780488729477e-02</internalNodes>
          <leafValues>
            4.5723462104797363e-01 -1.2465775758028030e-01</leafValues></_>
        <_>
          <internalNodes>
            0 -1 154 -1.1126654222607613e-02</internalNodes>
          <leafValues>
            3.4267178177833557e-01 -1.5729656815528870e-01</leafValues></_>
        <_>
          <internalNodes>
            0 -1 45 1.5301762148737907e-02</internalNodes>
          <leafValues>
            -7.4749290943145752e-02 5.3889381885528564e-01</leafValues></_>
        <_>
          <internalNodes>
            0 -1 129 -7.0488549681613222e-06</internalNodes>
          <leafValues>
            2.2846102714538574e-01 -2.3978680372238159e-01</leafValues></_>
        <_>
          <internalNodes>
            0 -1 159 -8.9022610336542130e-03</internalNodes>
          <leafValues>
            3.2693195343017578e-01 -1.3716898858547211e-01</leafValues></_>
        <_>
          <internalNodes>
            0 -1 169 -4.2501233518123627e-02</internalNodes>
          <leafValues>
            -7.4224001169204712e-01 6.0338109731674194e-02</leafValues></_>
        <_>
          <internalNodes>
            0 -1 24 1.5846674796193838e-03</internalNodes>
          <leafValues>
            -1.0136505961418152e-01 4.0049803256988525e-01</leafValues></_>
        <_>
          <internalNodes>
            0 -1 58 -1.7568057402968407e-02</internalNodes>
          <leafValues>
            -4.5348009467124939e-01 9.4852231442928314e-02</leafValues></_>
        <_>
          <internalNodes>
            0 -1 98 -3.9650402963161469e-02</internalNodes>
          <leafValues>
            -3.6555200815200806e-01 1.2851677834987640e-01</leafValues></_>
        <_>
          <internalNodes>
            0 -1 119 -4.7170375473797321e-03</internalNodes>
          <leafValues>
            2.8477025032043457e-01 -2.0183926820755005e-01</leafValues></_>
        <_>
          <internalNodes>
            0 -1 149 4.4837463647127151e-03</internalNodes>
          <leafValues>
            -1.1127173900604248e-01 3.7039873003959656e-01</leafValues></_>
        <_>
          <internalNodes>
            0 -1 177 -1.1015771888196468e-02</internalNodes>
          <leafValues>
            -6.2244462966918945e-01 6.8575985729694366e-02</leafValues></_>
        <_>
          <internalNodes>
            0 -1 76 3.1836179550737143e-03</internalNodes>
          <leafValues>
            8.5229687392711639e-02 -5.1499712467193604e-01</leafValues></_>
        <_>
          <internalNodes>
            0 -1 348 -1.5217918553389609e-04</internalNodes>
          <leafValues>
            -5.4274821281433105e-01 7.5361773371696472e-02</leafValues></_>
        <_>
          <internalNodes>
            0 -1 72 -5.4907461162656546e-04</internalNodes>
          <leafValues>
            -5.1830095052719116e-01 7.2129525244235992e-02</leafValues></_>
        <_>
          <internalNodes>
            0 -1 312 1.2494544498622417e-03</internalNodes>
          <leafValues>
            -3.4696048498153687e-01 1.1208579689264297e-01</leafValues></_>
        <_>
          <internalNodes>
            0 -1 0 -6.4274056057911366e-05</internalNodes>
          <leafValues>
            -3.5498622059822083e-01 1.0789523273706436e-01</leafValues></_>
        <_>
          <internalNodes>
            0 -1 0 4.4773125409847125e-05</internalNodes>
          <leafValues>
            1.1967043578624725e-01 -3.5988357663154602e-01</leafValues></_>
        <_>
          <internalNodes>
            0 -1 29 2.9912820900790393e-04</internalNodes>
          <leafValues>
            -2.0594158768653870e-01 1.8776622414588928e-01</leafValues></_>
        <_>
          <internalNodes>
            0 -1 105 -2.0904312841594219e-03</internalNodes>
          <leafValues>
            3.5345757007598877e-01 -1.0771203041076660e-01</leafValues></_>
        <_>
          <internalNodes>
            0 -1 78 -6.6296523436903954e-03</internalNodes>
          <leafValues>
            3.6291968822479248e-01 -1.1852489411830902e-01</leafValues></_>
        <_>
          <internalNodes>
            0 -1 91 2.0984988659620285e-03</internalNodes>
          <leafValues>
            -1.3286279141902924e-01 3.2093340158462524e-01</leafValues></_>
        <_>
          <internalNodes>
            0 -1 322 1.1219710111618042e-02</internalNodes>
          <leafValues>
            6.4805403351783752e-02 -6.2057018280029297e-01</leafValues></_>
        <_>
          <internalNodes>
            0 -1 345 2.5277424603700638e-02</internalNodes>
          <leafValues>
            -8.0903999507427216e-02 5.4348737001419067e-01</leafValues></_>
        <_>
          <internalNodes>
            0 -1 336 -1.4354651793837547e-02</internalNodes>
          <leafValues>
            2.7868491411209106e-01 -1.4307343959808350e-01</leafValues></_>
        <_>
          <internalNodes>
            0 -1 337 -5.9661855921149254e-03</internalNodes>
          <leafValues>
            -5.6737631559371948e-01 7.6884858310222626e-02</leafValues></_>
        <_>
          <internalNodes>
            0 -1 192 -2.1460223942995071e-03</internalNodes>
          <leafValues>
            3.6313292384147644e-01 -1.1702016741037369e-01</leafValues></_>
        <_>
          <internalNodes>
            0 -1 178 -1.5759305097162724e-03</internalNodes>
          <leafValues>
            2.8858965635299683e-01 -1.4811280369758606e-01</leafValues></_>
        <_>
          <internalNodes>
            0 -1 271 3.0701742507517338e-03</internalNodes>
          <leafValues>
            5.2621904760599136e-02 -8.3880943059921265e-01</leafValues></_>
        <_>
          <internalNodes>
            0 -1 307 3.4422022290527821e-03</internalNodes>
          <leafValues>
            -1.3832148909568787e-01 2.9682928323745728e-01</leafValues></_>
        <_>
          <internalNodes>
            0 -1 351 -6.7111151292920113e-04</internalNodes>
          <leafValues>
            2.6810979843139648e-01 -1.4369620382785797e-01</leafValues></_>
        <_>
          <internalNodes>
            0 -1 222 1.1759141925722361e-03</internalNodes>
          <leafValues>
            -1.1324990540742874e-01 3.4713914990425110e-01</leafValues></_>
        <_>
          <internalNodes>
            0 -1 298 -8.0541567876935005e-04</internalNodes>
          <leafValues>
            -7.5424325466156006e-01 5.4871208965778351e-02</leafValues></_></weakClassifiers></_></stages>
  <features>
    <_>
      <rects>
        <_>
          0 0 3 1 -1.</_>
        <_>
          1 0 1 1 3.</_></rects>
      <tilted>0</tilted></_>
    <_>
      <rects>
        <_>
          0 4 16 40 -1.</_>
        <_>
          8 4 8 40 2.</_></rects>
      <tilted>0</tilted></_>
    <_>
      <rects>
        <_>
          0 7 16 41 -1.</_>
        <_>
          8 7 8 41 2.</_></rects>
      <tilted>0</tilted></_>
    <_>
      <rects>
        <_>
          0 11 12 24 -1.</_>
        <_>
          6 11 6 24 2.</_></rects>
      <tilted>0</tilted></_>
    <_>
      <rects>
        <_>
          0 12 4 23 -1.</_>
        <_>
          2 12 2 23 2.</_></rects>
      <tilted>0</tilted></_>
    <_>
      <rects>
        <_>
          0 12 8 23 -1.</_>
        <_>
          4 12 4 23 2.</_></rects>
      <tilted>0</tilted></_>
    <_>
      <rects>
        <_>
          0 17 8 16 -1.</_>
        <_>
          4 17 4 16 2.</_></rects>
      <tilted>0</tilted></_>
    <_>
      <rects>
        <_>
          0 17 16 26 -1.</_>
        <_>
          8 17 8 26 2.</_></rects>
      <tilted>0</tilted></_>
    <_>
      <rects>
        <_>
          0 18 8 19 -1.</_>
        <_>
          4 18 4 19 2.</_></rects>
      <tilted>0</tilted></_>
    <_>
      <rects>
        <_>
          0 19 8 24 -1.</_>
        <_>
          4 19 4 24 2.</_></rects>
      <tilted>0</tilted></_>
    <_>
      <rects>
        <_>
          0 19 10 21 -1.</_>
        <_>
          5 19 5 21 2.</_></rects>
      <tilted>0</tilted></_>
    <_>
      <rects>
        <_>
          0 20 10 10 -1.</_>
        <_>
          5 20 5 10 2.</_></rects>
      <tilted>0</tilted></_>
    <_>
      <rects>
        <_>
          0 21 8 16 -1.</_>
        <_>
          4 21 4 16 2.</_></rects>
      <tilted>0</tilted></_>
    <_>
      <rects>
        <_>
          0 22 8 7 -1.</_>
        <_>
          4 22 4 7 2.</_></rects>
      <tilted>0</tilted></_>
    <_>
      <rects>
        <_>
          0 22 12 14 -1.</_>
        <_>
          6 22 6 14 2.</_></rects>
      <tilted>0</tilted></_>
    <_>
      <rects>
        <_>
          0 23 9 4 -1.</_>
        <_>
          3 23 3 4 3.</_></rects>
      <tilted>0</tilted></_>
    <_>
      <rects>
        <_>
          0 23 9 5 -1.</_>
        <_>
          3 23 3 5 3.</_></rects>
      <tilted>0</tilted></_>
    <_>
      <rects>
        <_>
          0 27 9 14 -1.</_>
        <_>
          3 27 3 14 3.</_></rects>
      <tilted>0</tilted></_>
    <_>
      <rects>
        <_>
          0 29 9 7 -1.</_>
        <_>
          3 29 3 7 3.</_></rects>
      <tilted>0</tilted></_>
    <_>
      <rects>
        <_>
          0 31 4 7 -1.</_>
        <_>
          2 31 2 7 2.</_></rects>
      <tilted>0</tilted></_>
    <_>
      <rects>
        <_>
          1 15 4 23 -1.</_>
        <_>
          3 15 2 23 2.</_></rects>
      <tilted>0</tilted></_>
    <_>
      <rects>
        <_>
          1 22 4 14 -1.</_>
        <_>
          1 22 2 7 2.</_>
        <_>
          3 29 2 7 2.</_></rects>
      <tilted>0</tilted></_>
    <_>
      <rects>
        <_>
          1 24 6 4 -1.</_>
        <_>
          3 24 2 4 3.</_></rects>
      <tilted>0</tilted></_>
    <_>
      <rects>
        <_>
          1 24 4 10 -1.</_>
        <_>
          1 24 2 5 2.</_>
        <_>
          3 29 2 5 2.</_></rects>
      <tilted>0</tilted></_>
    <_>
      <rects>
        <_>
          1 32 2 9 -1.</_>
        <_>
          2 32 1 9 2.</_></rects>
      <tilted>0</tilted></_>
    <_>
      <rects>
        <_>
          2 0 3 3 -1.</_>
        <_>
          2 1 3 1 3.</_></rects>
      <tilted>0</tilted></_>
    <_>
      <rects>
        <_>
          2 0 42 16 -1.</_>
        <_>
          2 8 42 8 2.</_></rects>
      <tilted>0</tilted></_>
    <_>
      <rects>
        <_>
          2 22 4 10 -1.</_>
        <_>
          2 22 2 5 2.</_>
        <_>
          4 27 2 5 2.</_></rects>
      <tilted>0</tilted></_>
    <_>
      <rects>
        <_>
          3 0 47 22 -1.</_>
        <_>
          3 11 47 11 2.</_></rects>
      <tilted>0</tilted></_>
    <_>
      <rects>
        <_>
          3 11 6 7 -1.</_>
        <_>
          5 11 2 7 3.</_></rects>
      <tilted>0</tilted></_>
    <_>
      <rects>
        <_>
          3 15 10 22 -1.</_>
        <_>
          3 15 5 11 2.</_>
        <_>
          8 26 5 11 2.</_></rects>
      <tilted>0</tilted></_>
    <_>
      <rects>
        <_>
          3 16 26 8 -1.</_>
        <_>
          16 16 13 8 2.</_></rects>
      <tilted>0</tilted></_>
    <_>
      <rects>
        <_>
          3 20 4 18 -1.</_>
        <_>
          3 20 2 9 2.</_>
        <_>
          5 29 2 9 2.</_></rects>
      <tilted>0</tilted></_>
    <_>
      <rects>
        <_>
          3 23 4 12 -1.</_>
        <_>
          3 23 2 6 2.</_>
        <_>
          5 29 2 6 2.</_></rects>
      <tilted>0</tilted></_>
    <_>
      <rects>
        <_>
          3 23 20 10 -1.</_>
        <_>
          3 28 20 5 2.</_></rects>
      <tilted>0</tilted></_>
    <_>
      <rects>
        <_>
          3 25 4 3 -1.</_>
        <_>
          5 25 2 3 2.</_></rects>
      <tilted>0</tilted></_>
    <_>
      <rects>
        <_>
          4 14 18 20 -1.</_>
        <_>
          4 24 18 10 2.</_></rects>
      <tilted>0</tilted></_>
    <_>
      <rects>
        <_>
          4 15 12 14 -1.</_>
        <_>
          4 15 6 7 2.</_>
        <_>
          10 22 6 7 2.</_></rects>
      <tilted>0</tilted></_>
    <_>
      <rects>
        <_>
          4 20 18 4 -1.</_>
        <_>
          10 20 6 4 3.</_></rects>
      <tilted>0</tilted></_>
    <_>
      <rects>
        <_>
          4 29 16 3 -1.</_>
        <_>
          4 30 16 1 3.</_></rects>
      <tilted>0</tilted></_>
    <_>
      <rects>
        <_>
          5 0 40 24 -1.</_>
        <_>
          5 12 40 12 2.</_></rects>
      <tilted>0</tilted></_>
    <_>
      <rects>
        <_>
          5 13 19 22 -1.</_>
        <_>
          5 24 19 11 2.</_></rects>
      <tilted>0</tilted></_>
    <_>
      <rects>
        <_>
          5 13 20 24 -1.</_>
        <_>
          5 25 20 12 2.</_></rects>
      <tilted>0</tilted></_>
    <_>
      <rects>
        <_>
          5 15 15 22 -1.</_>
        <_>
          5 26 15 11 2.</_></rects>
      <tilted>0</tilted></_>
    <_>
      <rects>
        <_>
          5 16 26 18 -1.</_>
        <_>
          5 16 13 9 2.</_>
        <_>
          18 25 13 9 2.</_></rects>
      <tilted>0</tilted></_>
    <_>
      <rects>
        <_>
          5 18 18 4 -1.</_>
        <_>
          11 18 6 4 3.</_></rects>
      <tilted>0</tilted></_>
    <_>
      <rects>
        <_>
          5 24 12 7 -1.</_>
        <_>
          11 24 6 7 2.</_></rects>
      <tilted>0</tilted></_>
    <_>
      <rects>
        <_>
          5 28 18 3 -1.</_>
        <_>
          5 29 18 1 3.</_></rects>
      <tilted>0</tilted></_>
    <_>
      <rects>
        <_>
          6 9 44 32 -1.</_>
        <_>
          6 9 22 16 2.</_>
        <_>
          28 25 22 16 2.</_></rects>
      <tilted>0</tilted></_>
    <_>
      <rects>
        <_>
          6 15 28 20 -1.</_>
        <_>
          6 15 14 10 2.</_>
        <_>
          20 25 14 10 2.</_></rects>
      <tilted>0</tilted></_>
    <_>
      <rects>
        <_>
          6 16 10 12 -1.</_>
        <_>
          6 16 5 6 2.</_>
        <_>
          11 22 5 6 2.</_></rects>
      <tilted>0</tilted></_>
    <_>
      <rects>
        <_>
          6 17 28 14 -1.</_>
        <_>
          6 24 28 7 2.</_></rects>
      <tilted>0</tilted></_>
    <_>
      <rects>
        <_>
          6 19 10 8 -1.</_>
        <_>
          6 19 5 4 2.</_>
        <_>
          11 23 5 4 2.</_></rects>
      <tilted>0</tilted></_>
    <_>
      <rects>
        <_>
          7 0 26 12 -1.</_>
        <_>
          7 6 26 6 2.</_></rects>
      <tilted>0</tilted></_>
    <_>
      <rects>
        <_>
          7 4 14 18 -1.</_>
        <_>
          7 13 14 9 2.</_></rects>
      <tilted>0</tilted></_>
    <_>
      <rects>
        <_>
          7 10 27 12 -1.</_>
        <_>
          7 14 27 4 3.</_></rects>
      <tilted>0</tilted></_>
    <_>
      <rects>
        <_>
          7 11 12 18 -1.</_>
        <_>
          7 20 12 9 2.</_></rects>
      <tilted>0</tilted></_>
    <_>
      <rects>
        <_>
          7 15 6 18 -1.</_>
        <_>
          9 15 2 18 3.</_></rects>
      <tilted>0</tilted></_>
    <_>
      <rects>
        <_>
          7 15 15 20 -1.</_>
        <_>
          7 25 15 10 2.</_></rects>
      <tilted>0</tilted></_>
    <_>
      <rects>
        <_>
          7 18 32 8 -1.</_>
        <_>
          23 18 16 8 2.</_></rects>
      <tilted>0</tilted></_>
    <_>
      <rects>
        <_>
          7 18 32 28 -1.</_>
        <_>
          7 32 32 14 2.</_></rects>
      <tilted>0</tilted></_>
    <_>
      <rects>
        <_>
          7 19 13 3 -1.</_>
        <_>
          7 20 13 1 3.</_></rects>
      <tilted>0</tilted></_>
    <_>
      <rects>
        <_>
          7 19 36 10 -1.</_>
        <_>
          25 19 18 10 2.</_></rects>
      <tilted>0</tilted></_>
    <_>
      <rects>
        <_>
          7 22 28 1 -1.</_>
        <_>
          21 22 14 1 2.</_></rects>
      <tilted>0</tilted></_>
    <_>
      <rects>
        <_>
          7 24 4 8 -1.</_>
        <_>
          7 24 2 4 2.</_>
        <_>
          9 28 2 4 2.</_></rects>
      <tilted>0</tilted></_>
    <_>
      <rects>
        <_>
          7 29 14 3 -1.</_>
        <_>
          7 30 14 1 3.</_></rects>
      <tilted>0</tilted></_>
    <_>
      <rects>
        <_>
          7 32 28 8 -1.</_>
        <_>
          7 32 14 4 2.</_>
        <_>
          21 36 14 4 2.</_></rects>
      <tilted>0</tilted></_>
    <_>
      <rects>
        <_>
          8 10 7 24 -1.</_>
        <_>
          8 22 7 12 2.</_></rects>
      <tilted>0</tilted></_>
    <_>
      <rects>
        <_>
          8 12 8 20 -1.</_>
        <_>
          8 22 8 10 2.</_></rects>
      <tilted>0</tilted></_>
    <_>
      <rects>
        <_>
          8 16 11 24 -1.</_>
        <_>
          8 28 11 12 2.</_></rects>
      <tilted>0</tilted></_>
    <_>
      <rects>
        <_>
          8 17 10 8 -1.</_>
        <_>
          8 17 5 4 2.</_>
        <_>
          13 21 5 4 2.</_></rects>
      <tilted>0</tilted></_>
    <_>
      <rects>
        <_>
          8 17 19 14 -1.</_>
        <_>
          8 24 19 7 2.</_></rects>
      <tilted>0</tilted></_>
    <_>
      <rects>
        <_>
          8 20 3 4 -1.</_>
        <_>
          9 20 1 4 3.</_></rects>
      <tilted>0</tilted></_>
    <_>
      <rects>
        <_>
          8 22 4 12 -1.</_>
        <_>
          8 22 2 6 2.</_>
        <_>
          10 28 2 6 2.</_></rects>
      <tilted>0</tilted></_>
    <_>
      <rects>
        <_>
          8 23 5 8 -1.</_>
        <_>
          8 27 5 4 2.</_></rects>
      <tilted>0</tilted></_>
    <_>
      <rects>
        <_>
          8 23 24 1 -1.</_>
        <_>
          16 23 8 1 3.</_></rects>
      <tilted>0</tilted></_>
    <_>
      <rects>
        <_>
          8 23 26 1 -1.</_>
        <_>
          21 23 13 1 2.</_></rects>
      <tilted>0</tilted></_>
    <_>
      <rects>
        <_>
          8 24 4 10 -1.</_>
        <_>
          8 24 2 5 2.</_>
        <_>
          10 29 2 5 2.</_></rects>
      <tilted>0</tilted></_>
    <_>
      <rects>
        <_>
          8 26 10 10 -1.</_>
        <_>
          8 26 5 5 2.</_>
        <_>
          13 31 5 5 2.</_></rects>
      <tilted>0</tilted></_>
    <_>
      <rects>
        <_>
          8 27 10 8 -1.</_>
        <_>
          8 27 5 4 2.</_>
        <_>
          13 31 5 4 2.</_></rects>
      <tilted>0</tilted></_>
    <_>
      <rects>
        <_>
          8 31 21 3 -1.</_>
        <_>
          15 31 7 3 3.</_></rects>
      <tilted>0</tilted></_>
    <_>
      <rects>
        <_>
          8 36 37 14 -1.</_>
        <_>
          8 43 37 7 2.</_></rects>
      <tilted>0</tilted></_>
    <_>
      <rects>
        <_>
          8 42 21 8 -1.</_>
        <_>
          8 46 21 4 2.</_></rects>
      <tilted>0</tilted></_>
    <_>
      <rects>
        <_>
          9 8 12 24 -1.</_>
        <_>
          13 8 4 24 3.</_></rects>
      <tilted>0</tilted></_>
    <_>
      <rects>
        <_>
          9 11 7 22 -1.</_>
        <_>
          9 22 7 11 2.</_></rects>
      <tilted>0</tilted></_>
    <_>
      <rects>
        <_>
          9 17 9 24 -1.</_>
        <_>
          9 29 9 12 2.</_></rects>
      <tilted>0</tilted></_>
    <_>
      <rects>
        <_>
          9 19 10 6 -1.</_>
        <_>
          9 19 5 3 2.</_>
        <_>
          14 22 5 3 2.</_></rects>
      <tilted>0</tilted></_>
    <_>
      <rects>
        <_>
          9 19 30 10 -1.</_>
        <_>
          24 19 15 10 2.</_></rects>
      <tilted>0</tilted></_>
    <_>
      <rects>
        <_>
          9 20 32 9 -1.</_>
        <_>
          25 20 16 9 2.</_></rects>
      <tilted>0</tilted></_>
    <_>
      <rects>
        <_>
          9 22 15 7 -1.</_>
        <_>
          14 22 5 7 3.</_></rects>
      <tilted>0</tilted></_>
    <_>
      <rects>
        <_>
          9 23 28 2 -1.</_>
        <_>
          23 23 14 2 2.</_></rects>
      <tilted>0</tilted></_>
    <_>
      <rects>
        <_>
          9 26 4 12 -1.</_>
        <_>
          9 26 2 6 2.</_>
        <_>
          11 32 2 6 2.</_></rects>
      <tilted>0</tilted></_>
    <_>
      <rects>
        <_>
          9 27 16 9 -1.</_>
        <_>
          17 27 8 9 2.</_></rects>
      <tilted>0</tilted></_>
    <_>
      <rects>
        <_>
          9 42 27 8 -1.</_>
        <_>
          9 46 27 4 2.</_></rects>
      <tilted>0</tilted></_>
    <_>
      <rects>
        <_>
          10 0 34 6 -1.</_>
        <_>
          10 3 34 3 2.</_></rects>
      <tilted>0</tilted></_>
    <_>
      <rects>
        <_>
          10 11 22 16 -1.</_>
        <_>
          10 11 11 8 2.</_>
        <_>
          21 19 11 8 2.</_></rects>
      <tilted>0</tilted></_>
    <_>
      <rects>
        <_>
          10 15 8 8 -1.</_>
        <_>
          10 15 4 4 2.</_>
        <_>
          14 19 4 4 2.</_></rects>
      <tilted>0</tilted></_>
    <_>
      <rects>
        <_>
          10 16 8 8 -1.</_>
        <_>
          10 16 4 4 2.</_>
        <_>
          14 20 4 4 2.</_></rects>
      <tilted>0</tilted></_>
    <_>
      <rects>
        <_>
          10 16 27 21 -1.</_>
        <_>
          19 16 9 21 3.</_></rects>
      <tilted>0</tilted></_>
    <_>
      <rects>
        <_>
          10 18 6 22 -1.</_>
        <_>
          10 18 3 11 2.</_>
        <_>
          13 29 3 11 2.</_></rects>
      <tilted>0</tilted></_>
    <_>
      <rects>
        <_>
          10 18 25 14 -1.</_>
        <_>
          10 25 25 7 2.</_></rects>
      <tilted>0</tilted></_>
    <_>
      <rects>
        <_>
          10 19 34 13 -1.</_>
        <_>
          27 19 17 13 2.</_></rects>
      <tilted>0</tilted></_>
    <_>
      <rects>
        <_>
          10 20 3 1 -1.</_>
        <_>
          11 20 1 1 3.</_></rects>
      <tilted>0</tilted></_>
    <_>
      <rects>
        <_>
          10 20 6 12 -1.</_>
        <_>
          10 24 6 4 3.</_></rects>
      <tilted>0</tilted></_>
    <_>
      <rects>
        <_>
          10 20 34 11 -1.</_>
        <_>
          27 20 17 11 2.</_></rects>
      <tilted>0</tilted></_>
    <_>
      <rects>
        <_>
          10 21 8 4 -1.</_>
        <_>
          10 21 4 2 2.</_>
        <_>
          14 23 4 2 2.</_></rects>
      <tilted>0</tilted></_>
    <_>
      <rects>
        <_>
          10 21 10 10 -1.</_>
        <_>
          10 21 5 5 2.</_>
        <_>
          15 26 5 5 2.</_></rects>
      <tilted>0</tilted></_>
    <_>
      <rects>
        <_>
          10 21 31 18 -1.</_>
        <_>
          10 27 31 6 3.</_></rects>
      <tilted>0</tilted></_>
    <_>
      <rects>
        <_>
          10 25 30 13 -1.</_>
        <_>
          20 25 10 13 3.</_></rects>
      <tilted>0</tilted></_>
    <_>
      <rects>
        <_>
          10 40 21 10 -1.</_>
        <_>
          10 45 21 5 2.</_></rects>
      <tilted>0</tilted></_>
    <_>
      <rects>
        <_>
          10 44 26 6 -1.</_>
        <_>
          10 47 26 3 2.</_></rects>
      <tilted>0</tilted></_>
    <_>
      <rects>
        <_>
          10 46 17 4 -1.</_>
        <_>
          10 48 17 2 2.</_></rects>
      <tilted>0</tilted></_>
    <_>
      <rects>
        <_>
          11 0 27 6 -1.</_>
        <_>
          11 3 27 3 2.</_></rects>
      <tilted>0</tilted></_>
    <_>
      <rects>
        <_>
          11 13 19 22 -1.</_>
        <_>
          11 24 19 11 2.</_></rects>
      <tilted>0</tilted></_>
    <_>
      <rects>
        <_>
          11 15 8 10 -1.</_>
        <_>
          11 15 4 5 2.</_>
        <_>
          15 20 4 5 2.</_></rects>
      <tilted>0</tilted></_>
    <_>
      <rects>
        <_>
          11 16 8 10 -1.</_>
        <_>
          11 16 4 5 2.</_>
        <_>
          15 21 4 5 2.</_></rects>
      <tilted>0</tilted></_>
    <_>
      <rects>
        <_>
          11 19 12 3 -1.</_>
        <_>
          17 19 6 3 2.</_></rects>
      <tilted>0</tilted></_>
    <_>
      <rects>
        <_>
          11 19 34 14 -1.</_>
        <_>
          28 19 17 14 2.</_></rects>
      <tilted>0</tilted></_>
    <_>
      <rects>
        <_>
          11 20 4 14 -1.</_>
        <_>
          11 20 2 7 2.</_>
        <_>
          13 27 2 7 2.</_></rects>
      <tilted>0</tilted></_>
    <_>
      <rects>
        <_>
          11 20 12 6 -1.</_>
        <_>
          17 20 6 6 2.</_></rects>
      <tilted>0</tilted></_>
    <_>
      <rects>
        <_>
          11 21 8 7 -1.</_>
        <_>
          15 21 4 7 2.</_></rects>
      <tilted>0</tilted></_>
    <_>
      <rects>
        <_>
          11 22 8 10 -1.</_>
        <_>
          11 22 4 5 2.</_>
        <_>
          15 27 4 5 2.</_></rects>
      <tilted>0</tilted></_>
    <_>
      <rects>
        <_>
          11 24 8 10 -1.</_>
        <_>
          11 24 4 5 2.</_>
        <_>
          15 29 4 5 2.</_></rects>
      <tilted>0</tilted></_>
    <_>
      <rects>
        <_>
          11 31 10 4 -1.</_>
        <_>
          11 31 5 2 2.</_>
        <_>
          16 33 5 2 2.</_></rects>
      <tilted>0</tilted></_>
    <_>
      <rects>
        <_>
          11 42 29 8 -1.</_>
        <_>
          11 46 29 4 2.</_></rects>
      <tilted>0</tilted></_>
    <_>
      <rects>
        <_>
          11 48 20 2 -1.</_>
        <_>
          11 48 10 1 2.</_>
        <_>
          21 49 10 1 2.</_></rects>
      <tilted>0</tilted></_>
    <_>
      <rects>
        <_>
          12 2 21 10 -1.</_>
        <_>
          12 7 21 5 2.</_></rects>
      <tilted>0</tilted></_>
    <_>
      <rects>
        <_>
          12 11 16 6 -1.</_>
        <_>
          12 14 16 3 2.</_></rects>
      <tilted>0</tilted></_>
    <_>
      <rects>
        <_>
          12 17 19 24 -1.</_>
        <_>
          12 25 19 8 3.</_></rects>
      <tilted>0</tilted></_>
    <_>
      <rects>
        <_>
          12 19 2 1 -1.</_>
        <_>
          13 19 1 1 2.</_></rects>
      <tilted>0</tilted></_>
    <_>
      <rects>
        <_>
          12 20 10 12 -1.</_>
        <_>
          17 20 5 12 2.</_></rects>
      <tilted>0</tilted></_>
    <_>
      <rects>
        <_>
          12 20 30 12 -1.</_>
        <_>
          27 20 15 12 2.</_></rects>
      <tilted>0</tilted></_>
    <_>
      <rects>
        <_>
          12 21 26 12 -1.</_>
        <_>
          25 21 13 12 2.</_></rects>
      <tilted>0</tilted></_>
    <_>
      <rects>
        <_>
          12 22 15 7 -1.</_>
        <_>
          17 22 5 7 3.</_></rects>
      <tilted>0</tilted></_>
    <_>
      <rects>
        <_>
          12 23 8 12 -1.</_>
        <_>
          12 23 4 6 2.</_>
        <_>
          16 29 4 6 2.</_></rects>
      <tilted>0</tilted></_>
    <_>
      <rects>
        <_>
          12 23 30 9 -1.</_>
        <_>
          27 23 15 9 2.</_></rects>
      <tilted>0</tilted></_>
    <_>
      <rects>
        <_>
          12 26 8 10 -1.</_>
        <_>
          12 26 4 5 2.</_>
        <_>
          16 31 4 5 2.</_></rects>
      <tilted>0</tilted></_>
    <_>
      <rects>
        <_>
          12 26 4 21 -1.</_>
        <_>
          12 33 4 7 3.</_></rects>
      <tilted>0</tilted></_>
    <_>
      <rects>
        <_>
          12 28 17 10 -1.</_>
        <_>
          12 33 17 5 2.</_></rects>
      <tilted>0</tilted></_>
    <_>
      <rects>
        <_>
          12 28 23 15 -1.</_>
        <_>
          12 33 23 5 3.</_></rects>
      <tilted>0</tilted></_>
    <_>
      <rects>
        <_>
          12 29 24 15 -1.</_>
        <_>
          12 34 24 5 3.</_></rects>
      <tilted>0</tilted></_>
    <_>
      <rects>
        <_>
          12 42 19 8 -1.</_>
        <_>
          12 46 19 4 2.</_></rects>
      <tilted>0</tilted></_>
    <_>
      <rects>
        <_>
          13 2 21 18 -1.</_>
        <_>
          13 8 21 6 3.</_></rects>
      <tilted>0</tilted></_>
    <_>
      <rects>
        <_>
          13 16 27 17 -1.</_>
        <_>
          22 16 9 17 3.</_></rects>
      <tilted>0</tilted></_>
    <_>
      <rects>
        <_>
          13 17 33 16 -1.</_>
        <_>
          24 17 11 16 3.</_></rects>
      <tilted>0</tilted></_>
    <_>
      <rects>
        <_>
          13 19 8 11 -1.</_>
        <_>
          17 19 4 11 2.</_></rects>
      <tilted>0</tilted></_>
    <_>
      <rects>
        <_>
          13 20 32 12 -1.</_>
        <_>
          29 20 16 12 2.</_></rects>
      <tilted>0</tilted></_>
    <_>
      <rects>
        <_>
          13 20 34 11 -1.</_>
        <_>
          30 20 17 11 2.</_></rects>
      <tilted>0</tilted></_>
    <_>
      <rects>
        <_>
          13 21 15 8 -1.</_>
        <_>
          18 21 5 8 3.</_></rects>
      <tilted>0</tilted></_>
    <_>
      <rects>
        <_>
          13 23 12 3 -1.</_>
        <_>
          17 23 4 3 3.</_></rects>
      <tilted>0</tilted></_>
    <_>
      <rects>
        <_>
          13 29 8 8 -1.</_>
        <_>
          13 29 4 4 2.</_>
        <_>
          17 33 4 4 2.</_></rects>
      <tilted>0</tilted></_>
    <_>
      <rects>
        <_>
          13 31 9 12 -1.</_>
        <_>
          16 31 3 12 3.</_></rects>
      <tilted>0</tilted></_>
    <_>
      <rects>
        <_>
          14 0 27 24 -1.</_>
        <_>
          14 8 27 8 3.</_></rects>
      <tilted>0</tilted></_>
    <_>
      <rects>
        <_>
          14 16 24 16 -1.</_>
        <_>
          22 16 8 16 3.</_></rects>
      <tilted>0</tilted></_>
    <_>
      <rects>
        <_>
          14 16 28 8 -1.</_>
        <_>
          14 16 14 4 2.</_>
        <_>
          28 20 14 4 2.</_></rects>
      <tilted>0</tilted></_>
    <_>
      <rects>
        <_>
          14 19 30 14 -1.</_>
        <_>
          29 19 15 14 2.</_></rects>
      <tilted>0</tilted></_>
    <_>
      <rects>
        <_>
          14 20 24 15 -1.</_>
        <_>
          26 20 12 15 2.</_></rects>
      <tilted>0</tilted></_>
    <_>
      <rects>
        <_>
          14 22 9 3 -1.</_>
        <_>
          14 23 9 1 3.</_></rects>
      <tilted>0</tilted></_>
    <_>
      <rects>
        <_>
          14 23 6 12 -1.</_>
        <_>
          14 23 3 6 2.</_>
        <_>
          17 29 3 6 2.</_></rects>
      <tilted>0</tilted></_>
    <_>
      <rects>
        <_>
          14 38 12 12 -1.</_>
        <_>
          14 42 12 4 3.</_></rects>
      <tilted>0</tilted></_>
    <_>
      <rects>
        <_>
          15 0 20 8 -1.</_>
        <_>
          15 4 20 4 2.</_></rects>
      <tilted>0</tilted></_>
    <_>
      <rects>
        <_>
          15 19 12 9 -1.</_>
        <_>
          19 19 4 9 3.</_></rects>
      <tilted>0</tilted></_>
    <_>
      <rects>
        <_>
          15 21 13 3 -1.</_>
        <_>
          15 22 13 1 3.</_></rects>
      <tilted>0</tilted></_>
    <_>
      <rects>
        <_>
          15 30 8 10 -1.</_>
        <_>
          15 35 8 5 2.</_></rects>
      <tilted>0</tilted></_>
    <_>
      <rects>
        <_>
          16 10 33 7 -1.</_>
        <_>
          27 10 11 7 3.</_></rects>
      <tilted>0</tilted></_>
    <_>
      <rects>
        <_>
          16 15 12 12 -1.</_>
        <_>
          16 19 12 4 3.</_></rects>
      <tilted>0</tilted></_>
    <_>
      <rects>
        <_>
          16 16 14 4 -1.</_>
        <_>
          16 16 7 2 2.</_>
        <_>
          23 18 7 2 2.</_></rects>
      <tilted>0</tilted></_>
    <_>
      <rects>
        <_>
          16 16 18 4 -1.</_>
        <_>
          16 16 9 2 2.</_>
        <_>
          25 18 9 2 2.</_></rects>
      <tilted>0</tilted></_>
    <_>
      <rects>
        <_>
          16 18 24 15 -1.</_>
        <_>
          24 18 8 15 3.</_></rects>
      <tilted>0</tilted></_>
    <_>
      <rects>
        <_>
          16 21 28 14 -1.</_>
        <_>
          30 21 14 14 2.</_></rects>
      <tilted>0</tilted></_>
    <_>
      <rects>
        <_>
          16 30 6 10 -1.</_>
        <_>
          18 30 2 10 3.</_></rects>
      <tilted>0</tilted></_>
    <_>
      <rects>
        <_>
          16 31 6 10 -1.</_>
        <_>
          18 31 2 10 3.</_></rects>
      <tilted>0</tilted></_>
    <_>
      <rects>
        <_>
          16 31 9 8 -1.</_>
        <_>
