<?xml version="1.0"?>
<opencv_storage>
<cascade>
  <stageType>BOOST</stageType>
  <featureType>HAAR</featureType>
  <height>40</height>
  <width>20</width>
  <stageParams>
    <boostType>GAB</boostType>
    <minHitRate>9.9500000476837158e-01</minHitRate>
    <maxFalseAlarm>5.0000000000000000e-01</maxFalseAlarm>
    <weightTrimRate>9.4999999999999996e-01</weightTrimRate>
    <maxDepth>1</maxDepth>
    <maxWeakCount>100</maxWeakCount></stageParams>
  <featureParams>
    <maxCatCount>0</maxCatCount>
    <featSize>1</featSize>
    <mode>BASIC</mode></featureParams>
  <stageNum>10</stageNum>
  <stages>
    <!-- stage 0 -->
    <_>
      <maxWeakCount>3</maxWeakCount>
      <stageThreshold>-9.8443573713302612e-01</stageThreshold>
      <weakClassifiers>
        <_>
          <internalNodes>
            0 -1 48 1.0183583945035934e-02</internalNodes>
          <leafValues>
            -8.2401901483535767e-01 8.5295742750167847e-01</leafValues></_>
        <_>
          <internalNodes>
            0 -1 52 5.6494819000363350e-03</internalNodes>
          <leafValues>
            -7.7035182714462280e-01 7.8231459856033325e-01</leafValues></_>
        <_>
          <internalNodes>
            0 -1 10 2.7413400821387768e-03</internalNodes>
          <leafValues>
            -7.2843694686889648e-01 6.0993510484695435e-01</leafValues></_></weakClassifiers></_>
    <!-- stage 1 -->
    <_>
      <maxWeakCount>3</maxWeakCount>
      <stageThreshold>-6.9488549232482910e-01</stageThreshold>
      <weakClassifiers>
        <_>
          <internalNodes>
            0 -1 6 1.8469911068677902e-02</internalNodes>
          <leafValues>
            -7.1844661235809326e-01 7.8970426321029663e-01</leafValues></_>
        <_>
          <internalNodes>
            0 -1 47 1.2351380661129951e-02</internalNodes>
          <leafValues>
            -6.6355890035629272e-01 8.2128739356994629e-01</leafValues></_>
        <_>
          <internalNodes>
            0 -1 21 3.4463158808648586e-03</internalNodes>
          <leafValues>
            -5.3149831295013428e-01 6.8712002038955688e-01</leafValues></_></weakClassifiers></_>
    <!-- stage 2 -->
    <_>
      <maxWeakCount>6</maxWeakCount>
      <stageThreshold>-1.5587432384490967e+00</stageThreshold>
      <weakClassifiers>
        <_>
          <internalNodes>
            0 -1 3 2.5973690673708916e-02</internalNodes>
          <leafValues>
            -5.0602412223815918e-01 8.1862151622772217e-01</leafValues></_>
        <_>
          <internalNodes>
            0 -1 33 1.5713263303041458e-02</internalNodes>
          <leafValues>
            -7.3052990436553955e-01 6.2596756219863892e-01</leafValues></_>
        <_>
          <internalNodes>
            0 -1 61 -5.8620737399905920e-04</internalNodes>
          <leafValues>
            4.6692103147506714e-01 -6.6219884157180786e-01</leafValues></_>
        <_>
          <internalNodes>
            0 -1 25 3.2826453447341919e-02</internalNodes>
          <leafValues>
            -6.4778447151184082e-01 4.6385079622268677e-01</leafValues></_>
        <_>
          <internalNodes>
            0 -1 22 1.0217154631391168e-03</internalNodes>
          <leafValues>
            -4.7445237636566162e-01 5.6992739439010620e-01</leafValues></_>
        <_>
          <internalNodes>
            0 -1 59 2.1766209101770073e-04</internalNodes>
          <leafValues>
            -7.2392636537551880e-01 3.3312666416168213e-01</leafValues></_></weakClassifiers></_>
    <!-- stage 3 -->
    <_>
      <maxWeakCount>5</maxWeakCount>
      <stageThreshold>-8.8992863893508911e-01</stageThreshold>
      <weakClassifiers>
        <_>
          <internalNodes>
            0 -1 42 1.7704011872410774e-02</internalNodes>
          <leafValues>
            -6.6579633951187134e-01 7.2186833620071411e-01</leafValues></_>
        <_>
          <internalNodes>
            0 -1 39 1.0842781513929367e-02</internalNodes>
          <leafValues>
            -6.0554832220077515e-01 6.1562508344650269e-01</leafValues></_>
        <_>
          <internalNodes>
            0 -1 23 3.4011192619800568e-03</internalNodes>
          <leafValues>
            -4.9579882621765137e-01 6.2853133678436279e-01</leafValues></_>
        <_>
          <internalNodes>
            0 -1 9 1.2836066074669361e-02</internalNodes>
          <leafValues>
            -5.6934571266174316e-01 4.7785460948944092e-01</leafValues></_>
        <_>
          <internalNodes>
            0 -1 56 5.9462059289216995e-04</internalNodes>
          <leafValues>
            -6.6402024030685425e-01 3.9936023950576782e-01</leafValues></_></weakClassifiers></_>
    <!-- stage 4 -->
    <_>
      <maxWeakCount>7</maxWeakCount>
      <stageThreshold>-9.2014759778976440e-01</stageThreshold>
      <weakClassifiers>
        <_>
          <internalNodes>
            0 -1 44 -2.4135384708642960e-02</internalNodes>
          <leafValues>
            6.6142559051513672e-01 -5.5525606870651245e-01</leafValues></_>
        <_>
          <internalNodes>
            0 -1 35 -2.2398985456675291e-03</internalNodes>
          <leafValues>
            4.9401715397834778e-01 -6.5568667650222778e-01</leafValues></_>
        <_>
          <internalNodes>
            0 -1 19 4.2553525418043137e-03</internalNodes>
          <leafValues>
            -5.2824276685714722e-01 5.8947902917861938e-01</leafValues></_>
        <_>
          <internalNodes>
            0 -1 8 3.1427744776010513e-02</internalNodes>
          <leafValues>
            -4.6760946512222290e-01 5.3516179323196411e-01</leafValues></_>
        <_>
          <internalNodes>
            0 -1 58 2.0751032978296280e-02</internalNodes>
          <leafValues>
            -5.0607299804687500e-01 4.7982829809188843e-01</leafValues></_>
        <_>
          <internalNodes>
            0 -1 43 1.5478953719139099e-03</internalNodes>
          <leafValues>
            -6.5453058481216431e-01 2.9442954063415527e-01</leafValues></_>
        <_>
          <internalNodes>
            0 -1 12 -2.2496362216770649e-03</internalNodes>
          <leafValues>
            5.1238954067230225e-01 -3.8241231441497803e-01</leafValues></_></weakClassifiers></_>
    <!-- stage 5 -->
    <_>
      <maxWeakCount>8</maxWeakCount>
      <stageThreshold>-1.4722728729248047e+00</stageThreshold>
      <weakClassifiers>
        <_>
          <internalNodes>
            0 -1 14 9.8698623478412628e-03</internalNodes>
          <leafValues>
            -5.6533700227737427e-01 6.5574622154235840e-01</leafValues></_>
        <_>
          <internalNodes>
            0 -1 56 1.2181345373392105e-03</internalNodes>
          <leafValues>
            -6.0985946655273438e-01 4.8358458280563354e-01</leafValues></_>
        <_>
          <internalNodes>
            0 -1 71 5.4791374132037163e-03</internalNodes>
          <leafValues>
            -3.8360092043876648e-01 6.1591154336929321e-01</leafValues></_>
        <_>
          <internalNodes>
            0 -1 18 3.0064177699387074e-03</internalNodes>
          <leafValues>
            -6.4915305376052856e-01 3.7297067046165466e-01</leafValues></_>
        <_>
          <internalNodes>
            0 -1 53 2.4297392519656569e-04</internalNodes>
          <leafValues>
            -7.3899048566818237e-01 2.9516088962554932e-01</leafValues></_>
        <_>
          <internalNodes>
            0 -1 50 8.4303657058626413e-04</internalNodes>
          <leafValues>
            -6.3003396987915039e-01 3.4674501419067383e-01</leafValues></_>
        <_>
          <internalNodes>
            0 -1 34 3.0383501201868057e-02</internalNodes>
          <leafValues>
            -5.1341301202774048e-01 3.3141130208969116e-01</leafValues></_>
        <_>
          <internalNodes>
            0 -1 11 1.0852539911866188e-02</internalNodes>
          <leafValues>
            -5.2561330795288086e-01 3.7490817904472351e-01</leafValues></_></weakClassifiers></_>
    <!-- stage 6 -->
    <_>
      <maxWeakCount>10</maxWeakCount>
      <stageThreshold>-1.0316674709320068e+00</stageThreshold>
      <weakClassifiers>
        <_>
          <internalNodes>
            0 -1 49 2.7212813496589661e-02</internalNodes>
          <leafValues>
            -3.1573605537414551e-01 6.9729727506637573e-01</leafValues></_>
        <_>
          <internalNodes>
            0 -1 62 -1.4166157925501466e-03</internalNodes>
          <leafValues>
            4.9706253409385681e-01 -5.9033536911010742e-01</leafValues></_>
        <_>
          <internalNodes>
            0 -1 70 5.4175020195543766e-03</internalNodes>
          <leafValues>
            -4.0320557355880737e-01 5.0865018367767334e-01</leafValues></_>
        <_>
          <internalNodes>
            0 -1 19 6.8247457966208458e-03</internalNodes>
          <leafValues>
            -3.7308922410011292e-01 5.0649964809417725e-01</leafValues></_>
        <_>
          <internalNodes>
            0 -1 15 3.6570712924003601e-02</internalNodes>
          <leafValues>
            -5.9936881065368652e-01 3.1789997220039368e-01</leafValues></_>
        <_>
          <internalNodes>
            0 -1 2 8.5625182837247849e-03</internalNodes>
          <leafValues>
            -4.3551591038703918e-01 4.3671888113021851e-01</leafValues></_>
        <_>
          <internalNodes>
            0 -1 68 1.0420484468340874e-02</internalNodes>
          <leafValues>
            -3.3999595046043396e-01 5.7786315679550171e-01</leafValues></_>
        <_>
          <internalNodes>
            0 -1 67 2.4402506649494171e-02</internalNodes>
          <leafValues>
            -2.3091894388198853e-01 6.6657054424285889e-01</leafValues></_>
        <_>
          <internalNodes>
            0 -1 57 8.3413237007334828e-05</internalNodes>
          <leafValues>
            -6.6649037599563599e-01 2.3190735280513763e-01</leafValues></_>
        <_>
          <internalNodes>
            0 -1 65 2.3930122551973909e-04</internalNodes>
          <leafValues>
            -5.5644321441650391e-01 2.5389629602432251e-01</leafValues></_></weakClassifiers></_>
    <!-- stage 7 -->
    <_>
      <maxWeakCount>12</maxWeakCount>
      <stageThreshold>-1.0406417846679688e+00</stageThreshold>
      <weakClassifiers>
        <_>
          <internalNodes>
            0 -1 48 2.5641765445470810e-02</internalNodes>
          <leafValues>
            -3.4127843379974365e-01 6.7458021640777588e-01</leafValues></_>
        <_>
          <internalNodes>
            0 -1 6 3.6009341478347778e-02</internalNodes>
          <leafValues>
            -4.5677655935287476e-01 5.4279208183288574e-01</leafValues></_>
        <_>
          <internalNodes>
            0 -1 39 1.3101812452077866e-02</internalNodes>
          <leafValues>
            -4.9352383613586426e-01 3.6200603842735291e-01</leafValues></_>
        <_>
          <internalNodes>
            0 -1 29 -3.9039005059748888e-04</internalNodes>
          <leafValues>
            3.7549912929534912e-01 -4.6806818246841431e-01</leafValues></_>
        <_>
          <internalNodes>
            0 -1 24 5.2824681624770164e-03</internalNodes>
          <leafValues>
            -2.8594666719436646e-01 5.8752465248107910e-01</leafValues></_>
        <_>
          <internalNodes>
            0 -1 7 5.8256667107343674e-03</internalNodes>
          <leafValues>
            -5.4414755105972290e-01 2.7451580762863159e-01</leafValues></_>
        <_>
          <internalNodes>
            0 -1 37 -4.3037496507167816e-03</internalNodes>
          <leafValues>
            4.2771691083908081e-01 -3.7018415331840515e-01</leafValues></_>
        <_>
          <internalNodes>
            0 -1 66 -1.0627040319377556e-04</internalNodes>
          <leafValues>
            2.1093155443668365e-01 -6.8374675512313843e-01</leafValues></_>
        <_>
          <internalNodes>
            0 -1 16 1.4300243929028511e-02</internalNodes>
          <leafValues>
            1.9964255392551422e-01 -5.5646187067031860e-01</leafValues></_>
        <_>
          <internalNodes>
            0 -1 28 -8.3077396266162395e-04</internalNodes>
          <leafValues>
            -7.0422220230102539e-01 1.6650405526161194e-01</leafValues></_>
        <_>
          <internalNodes>
            0 -1 31 -1.7074953764677048e-02</internalNodes>
          <leafValues>
            2.4200376868247986e-01 -4.8055246472358704e-01</leafValues></_>
        <_>
          <internalNodes>
            0 -1 0 8.1659574061632156e-03</internalNodes>
          <leafValues>
            -3.8843291997909546e-01 3.2068675756454468e-01</leafValues></_></weakClassifiers></_>
    <!-- stage 8 -->
    <_>
      <maxWeakCount>13</maxWeakCount>
      <stageThreshold>-1.0712473392486572e+00</stageThreshold>
      <weakClassifiers>
        <_>
          <internalNodes>
            0 -1 51 -1.8090240657329559e-02</internalNodes>
          <leafValues>
            6.1465853452682495e-01 -3.0270907282829285e-01</leafValues></_>
        <_>
          <internalNodes>
            0 -1 60 4.0493288543075323e-04</internalNodes>
          <leafValues>
            -7.8038573265075684e-01 2.8981497883796692e-01</leafValues></_>
        <_>
          <internalNodes>
            0 -1 22 1.2545539066195488e-03</internalNodes>
          <leafValues>
            -4.5774510502815247e-01 4.0786916017532349e-01</leafValues></_>
        <_>
          <internalNodes>
            0 -1 32 1.7330912873148918e-02</internalNodes>
          <leafValues>
            -7.1010899543762207e-01 2.3156224191188812e-01</leafValues></_>
        <_>
          <internalNodes>
            0 -1 45 4.4533133041113615e-04</internalNodes>
          <leafValues>
            -7.1769261360168457e-01 1.9875891506671906e-01</leafValues></_>
        <_>
          <internalNodes>
            0 -1 69 1.1374143883585930e-02</internalNodes>
          <leafValues>
            -3.4964686632156372e-01 4.6233671903610229e-01</leafValues></_>
        <_>
          <internalNodes>
            0 -1 55 2.9802124481648207e-04</internalNodes>
          <leafValues>
            -5.6642282009124756e-01 2.3796640336513519e-01</leafValues></_>
        <_>
          <internalNodes>
            0 -1 5 1.8384896218776703e-02</internalNodes>
          <leafValues>
            -5.3561282157897949e-01 1.8649415671825409e-01</leafValues></_>
        <_>
          <internalNodes>
            0 -1 17 -2.0524405408650637e-03</internalNodes>
          <leafValues>
            5.9112250804901123e-01 -2.1434232592582703e-01</leafValues></_>
        <_>
          <internalNodes>
            0 -1 46 -3.1210971064865589e-03</internalNodes>
          <leafValues>
            4.1302776336669922e-01 -3.0164211988449097e-01</leafValues></_>
        <_>
          <internalNodes>
            0 -1 1 2.9735596850514412e-02</internalNodes>
          <leafValues>
            -2.2411188483238220e-01 5.7021015882492065e-01</leafValues></_>
        <_>
          <internalNodes>
            0 -1 30 -1.0762123856693506e-03</internalNodes>
          <leafValues>
            -7.9228252172470093e-01 1.3825823366641998e-01</leafValues></_>
        <_>
          <internalNodes>
            0 -1 26 3.6619356833398342e-03</internalNodes>
          <leafValues>
            -2.5298872590065002e-01 5.2670276165008545e-01</leafValues></_></weakClassifiers></_>
    <!-- stage 9 -->
    <_>
      <maxWeakCount>13</maxWeakCount>
      <stageThreshold>-1.2681211233139038e+00</stageThreshold>
      <weakClassifiers>
        <_>
          <internalNodes>
            0 -1 40 6.4244354143738747e-04</internalNodes>
          <leafValues>
            -5.6956523656845093e-01 5.0776255130767822e-01</leafValues></_>
        <_>
          <internalNodes>
            0 -1 54 4.9342839047312737e-03</internalNodes>
          <leafValues>
            -5.5513203144073486e-01 3.4503844380378723e-01</leafValues></_>
        <_>
          <internalNodes>
            0 -1 20 3.9704251103103161e-03</internalNodes>
          <leafValues>
            -3.8643997907638550e-01 5.4850912094116211e-01</leafValues></_>
        <_>
          <internalNodes>
            0 -1 72 4.5356713235378265e-03</internalNodes>
          <leafValues>
            -3.4874939918518066e-01 5.2800673246383667e-01</leafValues></_>
        <_>
          <internalNodes>
            0 -1 73 -1.2519563548266888e-02</internalNodes>
          <leafValues>
            5.0035381317138672e-01 -3.7434121966362000e-01</leafValues></_>
        <_>
          <internalNodes>
            0 -1 36 8.9681558310985565e-03</internalNodes>
          <leafValues>
            -3.3596411347389221e-01 4.5544955134391785e-01</leafValues></_>
        <_>
          <internalNodes>
            0 -1 38 4.0067069232463837e-02</internalNodes>
          <leafValues>
            -2.4265101552009583e-01 5.6615990400314331e-01</leafValues></_>
        <_>
          <internalNodes>
            0 -1 41 -1.6767815686762333e-03</internalNodes>
          <leafValues>
            3.0082935094833374e-01 -5.1338279247283936e-01</leafValues></_>
        <_>
          <internalNodes>
            0 -1 64 1.4066341100260615e-04</internalNodes>
          <leafValues>
            -5.8082550764083862e-01 2.0349973440170288e-01</leafValues></_>
        <_>
          <internalNodes>
            0 -1 4 2.2351633757352829e-02</internalNodes>
          <leafValues>
            -2.5765338540077209e-01 4.6522817015647888e-01</leafValues></_>
        <_>
          <internalNodes>
            0 -1 63 2.0406165276654065e-04</internalNodes>
          <leafValues>
            -4.7745397686958313e-01 2.8306180238723755e-01</leafValues></_>
        <_>
          <internalNodes>
            0 -1 13 -2.1658507175743580e-03</internalNodes>
          <leafValues>
            3.6980473995208740e-01 -3.3032020926475525e-01</leafValues></_>
        <_>
          <internalNodes>
            0 -1 27 -1.0691580828279257e-03</internalNodes>
          <leafValues>
            -7.9791653156280518e-01 1.5753272175788879e-01</leafValues></_></weakClassifiers></_></stages>
  <features>
    <_>
      <rects>
        <_>
          0 5 12 1 -1.</_>
        <_>
          6 5 6 1 2.</_></rects>
      <tilted>0</tilted></_>
    <_>
      <rects>
        <_>
          0 8 9 11 -1.</_>
        <_>
          3 8 3 11 3.</_></rects>
      <tilted>0</tilted></_>
    <_>
      <rects>
        <_>
          0 34 10 2 -1.</_>
        <_>
          5 34 5 2 2.</_></rects>
      <tilted>0</tilted></_>
    <_>
      <rects>
        <_>
          1 4 18 2 -1.</_>
        <_>
          7 4 6 2 3.</_></rects>
      <tilted>0</tilted></_>
    <_>
      <rects>
        <_>
          1 30 9 6 -1.</_>
        <_>
          4 30 3 6 3.</_></rects>
      <tilted>0</tilted></_>
    <_>
      <rects>
        <_>
          1 35 12 4 -1.</_>
        <_>
          7 35 6 4 2.</_></rects>
      <tilted>0</tilted></_>
    <_>
      <rects>
        <_>
          1 36 18 2 -1.</_>
        <_>
          7 36 6 2 3.</_></rects>
      <tilted>0</tilted></_>
    <_>
      <rects>
        <_>
          2 1 10 4 -1.</_>
        <_>
          2 1 5 2 2.</_>
        <_>
          7 3 5 2 2.</_></rects>
      <tilted>0</tilted></_>
    <_>
      <rects>
        <_>
          2 4 18 2 -1.</_>
        <_>
          8 4 6 2 3.</_></rects>
      <tilted>0</tilted></_>
    <_>
      <rects>
        <_>
          2 37 18 1 -1.</_>
        <_>
          8 37 6 1 3.</_></rects>
      <tilted>0</tilted></_>
    <_>
      <rects>
        <_>
          3 1 8 4 -1.</_>
        <_>
          3 1 4 2 2.</_>
        <_>
          7 3 4 2 2.</_></rects>
      <tilted>0</tilted></_>
    <_>
      <rects>
        <_>
          3 2 8 5 -1.</_>
        <_>
          7 2 4 5 2.</_></rects>
      <tilted>0</tilted></_>
    <_>
      <rects>
        <_>
          3 21 3 3 -1.</_>
        <_>
          4 21 1 3 3.</_></rects>
      <tilted>0</tilted></_>
    <_>
      <rects>
        <_>
          3 22 3 3 -1.</_>
        <_>
          4 22 1 3 3.</_></rects>
      <tilted>0</tilted></_>
    <_>
      <rects>
        <_>
          3 37 15 1 -1.</_>
        <_>
          8 37 5 1 3.</_></rects>
      <tilted>0</tilted></_>
    <_>
      <rects>
        <_>
          4 0 13 15 -1.</_>
        <_>
          4 5 13 5 3.</_></rects>
      <tilted>0</tilted></_>
    <_>
      <rects>
        <_>
          4 4 4 30 -1.</_>
        <_>
          4 14 4 10 3.</_></rects>
      <tilted>0</tilted></_>
    <_>
      <rects>
        <_>
          4 13 3 2 -1.</_>
        <_>
          5 13 1 2 3.</_></rects>
      <tilted>0</tilted></_>
    <_>
      <rects>
        <_>
          4 17 3 8 -1.</_>
        <_>
          5 17 1 8 3.</_></rects>
      <tilted>0</tilted></_>
    <_>
      <rects>
        <_>
          4 18 3 4 -1.</_>
        <_>
          5 18 1 4 3.</_></rects>
      <tilted>0</tilted></_>
    <_>
      <rects>
        <_>
          4 18 2 5 -1.</_>
        <_>
          5 18 1 5 2.</_></rects>
      <tilted>0</tilted></_>
    <_>
      <rects>
        <_>
          4 18 3 5 -1.</_>
        <_>
          5 18 1 5 3.</_></rects>
      <tilted>0</tilted></_>
    <_>
      <rects>
        <_>
          4 20 3 1 -1.</_>
        <_>
          5 20 1 1 3.</_></rects>
      <tilted>0</tilted></_>
    <_>
      <rects>
        <_>
          4 20 3 3 -1.</_>
        <_>
          5 20 1 3 3.</_></rects>
      <tilted>0</tilted></_>
    <_>
      <rects>
        <_>
          4 22 3 3 -1.</_>
        <_>
          5 22 1 3 3.</_></rects>
      <tilted>0</tilted></_>
    <_>
      <rects>
        <_>
          5 0 8 12 -1.</_>
        <_>
          5 4 8 4 3.</_></rects>
      <tilted>0</tilted></_>
    <_>
      <rects>
        <_>
          5 15 3 5 -1.</_>
        <_>
          6 15 1 5 3.</_></rects>
      <tilted>0</tilted></_>
    <_>
      <rects>
        <_>
          5 17 2 3 -1.</_>
        <_>
          5 18 2 1 3.</_></rects>
      <tilted>0</tilted></_>
    <_>
      <rects>
        <_>
          5 18 2 3 -1.</_>
        <_>
          5 19 2 1 3.</_></rects>
      <tilted>0</tilted></_>
    <_>
      <rects>
        <_>
          5 19 2 1 -1.</_>
        <_>
          6 19 1 1 2.</_></rects>
      <tilted>0</tilted></_>
    <_>
      <rects>
        <_>
          5 19 2 3 -1.</_>
        <_>
          5 20 2 1 3.</_></rects>
      <tilted>0</tilted></_>
    <_>
      <rects>
        <_>
          5 21 11 15 -1.</_>
        <_>
          5 26 11 5 3.</_></rects>
      <tilted>0</tilted></_>
    <_>
      <rects>
        <_>
          5 29 9 8 -1.</_>
        <_>
          5 33 9 4 2.</_></rects>
      <tilted>0</tilted></_>
    <_>
      <rects>
        <_>
          5 29 10 8 -1.</_>
        <_>
          5 33 10 4 2.</_></rects>
      <tilted>0</tilted></_>
    <_>
      <rects>
        <_>
          5 31 10 9 -1.</_>
        <_>
          5 34 10 3 3.</_></rects>
      <tilted>0</tilted></_>
    <_>
      <rects>
        <_>
          5 37 9 2 -1.</_>
        <_>
          5 38 9 1 2.</_></rects>
      <tilted>0</tilted></_>
    <_>
      <rects>
        <_>
          6 4 10 6 -1.</_>
        <_>
          6 6 10 2 3.</_></rects>
      <tilted>0</tilted></_>
    <_>
      <rects>
        <_>
          6 14 2 13 -1.</_>
        <_>
          7 14 1 13 2.</_></rects>
      <tilted>0</tilted></_>
    <_>
      <rects>
        <_>
          6 30 9 9 -1.</_>
        <_>
          6 33 9 3 3.</_></rects>
      <tilted>0</tilted></_>
    <_>
      <rects>
        <_>
          6 33 8 6 -1.</_>
        <_>
          6 35 8 2 3.</_></rects>
      <tilted>0</tilted></_>
    <_>
      <rects>
        <_>
          6 35 7 3 -1.</_>
        <_>
          6 36 7 1 3.</_></rects>
      <tilted>0</tilted></_>
    <_>
      <rects>
        <_>
          6 38 6 2 -1.</_>
        <_>
          6 39 6 1 2.</_></rects>
      <tilted>0</tilted></_>
    <_>
      <rects>
        <_>
          7 1 5 9 -1.</_>
        <_>
          7 4 5 3 3.</_></rects>
      <tilted>0</tilted></_>
    <_>
      <rects>
        <_>
          7 3 6 2 -1.</_>
        <_>
          7 4 6 1 2.</_></rects>
      <tilted>0</tilted></_>
    <_>
      <rects>
        <_>
          7 3 6 12 -1.</_>
        <_>
          7 9 6 6 2.</_></rects>
      <tilted>0</tilted></_>
    <_>
      <rects>
        <_>
          7 4 6 3 -1.</_>
        <_>
          7 5 6 1 3.</_></rects>
      <tilted>0</tilted></_>
    <_>
      <rects>
        <_>
          7 17 2 18 -1.</_>
        <_>
          7 17 1 9 2.</_>
        <_>
          8 26 1 9 2.</_></rects>
      <tilted>0</tilted></_>
    <_>
      <rects>
        <_>
          8 0 4 6 -1.</_>
        <_>
          8 3 4 3 2.</_></rects>
      <tilted>0</tilted></_>
    <_>
      <rects>
        <_>
          8 1 4 9 -1.</_>
        <_>
          8 4 4 3 3.</_></rects>
      <tilted>0</tilted></_>
    <_>
      <rects>
        <_>
          8 3 12 10 -1.</_>
        <_>
          8 3 6 5 2.</_>
        <_>
          14 8 6 5 2.</_></rects>
      <tilted>0</tilted></_>
    <_>
      <rects>
        <_>
          8 4 4 3 -1.</_>
        <_>
          8 5 4 1 3.</_></rects>
      <tilted>0</tilted></_>
    <_>
      <rects>
        <_>
          8 4 4 8 -1.</_>
        <_>
          8 8 4 4 2.</_></rects>
      <tilted>0</tilted></_>
    <_>
      <rects>
        <_>
          8 34 4 6 -1.</_>
        <_>
          8 36 4 2 3.</_></rects>
      <tilted>0</tilted></_>
    <_>
      <rects>
        <_>
          8 35 3 3 -1.</_>
        <_>
          8 36 3 1 3.</_></rects>
      <tilted>0</tilted></_>
    <_>
      <rects>
        <_>
          9 1 2 4 -1.</_>
        <_>
          9 3 2 2 2.</_></rects>
      <tilted>0</tilted></_>
    <_>
      <rects>
        <_>
          9 2 1 2 -1.</_>
        <_>
          9 3 1 1 2.</_></rects>
      <tilted>0</tilted></_>
    <_>
      <rects>
        <_>
          9 2 2 2 -1.</_>
        <_>
          9 3 2 1 2.</_></rects>
      <tilted>0</tilted></_>
    <_>
      <rects>
        <_>
          9 3 2 3 -1.</_>
        <_>
          9 4 2 1 3.</_></rects>
      <tilted>0</tilted></_>
    <_>
      <rects>
        <_>
          9 27 3 12 -1.</_>
        <_>
          9 33 3 6 2.</_></rects>
      <tilted>0</tilted></_>
    <_>
      <rects>
        <_>
          9 36 2 3 -1.</_>
        <_>
          9 37 2 1 3.</_></rects>
      <tilted>0</tilted></_>
    <_>
      <rects>
        <_>
          9 36 3 3 -1.</_>
        <_>
          9 37 3 1 3.</_></rects>
      <tilted>0</tilted></_>
    <_>
      <rects>
        <_>
          9 38 2 2 -1.</_>
        <_>
          9 39 2 1 2.</_></rects>
      <tilted>0</tilted></_>
    <_>
      <rects>
        <_>
          9 38 3 2 -1.</_>
        <_>
          9 39 3 1 2.</_></rects>
      <tilted>0</tilted></_>
    <_>
      <rects>
        <_>
          10 3 1 3 -1.</_>
        <_>
          10 4 1 1 3.</_></rects>
      <tilted>0</tilted></_>
    <_>
      <rects>
        <_>
          10 4 1 3 -1.</_>
        <_>
          10 5 1 1 3.</_></rects>
      <tilted>0</tilted></_>
    <_>
      <rects>
        <_>
          10 36 1 3 -1.</_>
        <_>
          10 37 1 1 3.</_></rects>
      <tilted>0</tilted></_>
    <_>
      <rects>
        <_>
          10 38 1 2 -1.</_>
        <_>
          10 39 1 1 2.</_></rects>
      <tilted>0</tilted></_>
    <_>
      <rects>
        <_>
          11 7 9 6 -1.</_>
        <_>
          14 7 3 6 3.</_></rects>
      <tilted>0</tilted></_>
    <_>
      <rects>
        <_>
          11 31 9 3 -1.</_>
        <_>
          14 31 3 3 3.</_></rects>
      <tilted>0</tilted></_>
    <_>
      <rects>
        <_>
          12 16 6 7 -1.</_>
        <_>
          14 16 2 7 3.</_></rects>
      <tilted>0</tilted></_>
    <_>
      <rects>
        <_>
          13 15 3 9 -1.</_>
        <_>
          14 15 1 9 3.</_></rects>
      <tilted>0</tilted></_>
    <_>
      <rects>
        <_>
          13 16 3 9 -1.</_>
        <_>
          14 16 1 9 3.</_></rects>
      <tilted>0</tilted></_>
    <_>
      <rects>
        <_>
          13 20 3 6 -1.</_>
        <_>
          14 20 1 6 3.</_></rects>
      <tilted>0</tilted></_>
    <_>
      <rects>
        <_>
          14 32 6 5 -1.</_>
        <_>
          17 32 3 5 2.</_></rects>
      <tilted>0</tilted></_></features></cascade>
</opencv_storage>
